tree
version=v4
num_class=1
num_tree_per_iteration=1
label_index=0
max_feature_idx=42
objective=binary sigmoid:1
feature_names=n_rows n_cols n_numeric_cols n_cat_cols cat_ratio missing_ratio row_col_ratio n_classes class_imbalance_ratio avg_feature_corr max_feature_corr avg_target_corr max_target_corr landmarking_score baseline_score baseline_std relative_headroom null_pct unique_ratio outlier_ratio skewness kurtosis_val coeff_variation zeros_ratio entropy is_binary range_iqr_ratio baseline_feature_importance importance_rank_pct spearman_corr_target mutual_info_score shapiro_p_value bimodality_coefficient pct_negative pct_in_0_1_range method_impute_median method_log_transform method_missing_indicator method_polynomial_cube method_polynomial_square method_quantile_binning method_reciprocal_transform method_sqrt_transform
feature_infos=[500:2215023] [1:4279] [1:4279] [0:211] [0:0.98598130841121501] [0:0.65966029850746277] [0.72345483359746432:498797] [2:1000] [1:30217.705882352941] [0:0.98543420952799876] [0:1.0000000000000149] [0:0.57407505945933934] [0:0.82726424066708037] [0.0061666666666665999:0.99996828643690183] [0.015134026166925199:0.98999545954496759] [8.5000758896604622e-05:0.31910833032647751] [0.010004540455032501:0.98486597383307484] [0:0.98999999999999999] [1.2884854497780585e-06:1] [0:0.45449716286369668] [-76.33705719318354:796.5980707752276] [-1.9999982756840813:740311.33195086359] [0:9119629120.9362831] [0:0.99960110626529097] [0.00014171140106069999:5.6438561897747253] [0:1] [0.99999997778046845:1.6734313884628592e+24] [0:109481.2] [0.0006565988181221:1] [0:0.80456997633865612] [0:1.8713474859242167] [0:0.99250999122743899] [0.0015791074592528:1.0000023893757095] [0:1] [0:1] [0:1] [0:1] [0:1] [0:1] [0:1] [0:1] [0:1] [0:1]
tree_sizes=2960 2968 2964 2973 2965 2975 3008 2984 2995 2959 2972 2974 2979 2976 2961 2757 2989 2992 2993 2997 3006 2981 2988 3003 2969 2990 2999 2962 3003 2967 2988 2928 2990 2999 2968 3017 2969 2982 3006 2939 3007 3000 2950 3017 3010 2946 2930 2970 2967 2983 3015 3002 2979 2984 3005 2982 3001 2996 2946 3005 2986 2993 2988 2985 2992 2996 2994 3000 3002 2952 2972 3013 2991 3004 2986 2978 3023 2976 2965 2961 3008 3020 2995 3017 2989 2942 2987 2984 2962 2970 2983 2946 2995 2973 3000 2984 2997 2973 3004 2995 2986 2977 2879 2964 2993 2945 2966 2967 2995 2942 2938 2960 2964 2984 2975 2949 2939 2961 2965 3000 2948 2946 2920 2926 2950 2946 2963 2937 2981 2922 2959 2953 2965 2940 2976 2897 2968 2969 2951 2999 2996 2985 2947 2999 2964 3008 2960 2991 2976 2921 2951 2973 2965 2950 2960 2890 2944 2962 2935 2902 2986 2978 2937 2947 2953 2921 2952 2965 2942 2993 2952 2990 2868 2948 2950 2954 2968 2934 3000 2992 2984 2984 2984 2938 2898 2962 2994 2985 2991 2947 2930 2927 2930 2859 2970 2920 2947 2953 2933 2988 2954 2913 2921 2960 2951 2950 2927 2943 2962 2930 2962 2893 2945 2969 2948 2975 2967 3001 2956 2916 2943 2942 2903 2949 2898 2943 2943 2944 2985 2975 2988 2930 2896 2972 2906 2935 2910 2955 2929 2898 2930 2982 2861 2924 2956 2979 2939 2902 2952 2964 2954 2947 2969 2929 2944 2993 2980 2906 2930 2929 2902 2968 2919 2939 2974 2893 2927 2978 2990 2928 2947 2925 2961 2906 2921 2936 2918 2919 2950 2951 2932 3000 2973 2927 2937 2864 2922 2972 2912 2911 2963 2884 2876 2910 2911 2941 2951 2895 2899 2919 2935 2881 2884 3003 2945 2950 2877 2930 2967 2946 2970 2934 2921 2992 2929 2948 2916 2960 2830 2874 2791 2980 2893 2948 2957 2982 2940 2849 2820 2922 2886 2938 2903 2900 2987 2946 2931 2921 2931 2948 2918 2951 2965 2943 2933 2912 2926 2898 2922 2878 3011 2954 2991 2908 2911 2849 2936 2823 2958 2942 2948 2810 2970 2877 2993 2946 2946 2925 2971 2952 2860 2946 2896 2913 2902 2961 2885 2935 2947 2924 2854 2940 2922 2951 2952 2938 2940 2962 2883 2877 2967 2944 2968 2884 2926 2922 2972 2930 2957 2935 2927 2943 2920 2848 2935 2922 2920 2902 2921 2908 2946 2973 2842 2935 2833 2861 2965 2956 2938 2840 2959 2938 2913 2915 2921 2933 2940 2962 2907 2884 2946 2957 2952 2971 2917 2913 2969 2938 2917 2933 2939 3002 2971 2849 2905 2936 2948 2918 2873 2961 2905 2884 2903 2935 2929 2968 2924 2986 2977 2957 2848 2873 2841 2995 2953 2983 2919 2969 2990 2980 2918 2907 2921 2871 2945 2932 2915 2946 2882 2893 2975 2890 2889 2968 2928 2819 2908 2889 2862 2934 2974 2948 2873 2941 2924 2848 2900 2940 2790 2861 2888 2899 2949 2939 2953 2979 2931 2929 2938 2958 2954 2926 2972 2950 2922 2907 2881 2915 2883 2932 2921 2951 2892 2955 2916 2923 2963 2924 2907 2840 2916 2909 2953 2935 2908 2952 2957 2891 2962 2912 2809 2850 2905 2951 2975 2936 2900 2934 2880 2917 2904 2939 2907 2963 2929 2798 2808 2883 2925 2958 2922 2893 2818 2976 2933 2927 2945 2887 2906 2958 2904 2971 2876 2874 2912 2986 2933 2922 2932 2992 2918 2959 2775 2933 2935 2940 2927 2889 2904 2959 2961 2937 2902 2946 2930 2929 2945 2920 2934 2969 2903 2947 2944 2905 2973 2946 2902 2917 2922 2866 2928 2937 2961 2948 2883 2875 2823 2909 2900 2930 2922 2876 2836 2880 2842 2945 2958 2928 2954 2962 2910 2932 2847 2905 2900 2930 2881 2980 2922 2893 2873 2869 2826 2923 2806 2944 2885 2940 2863 2838 2876 2894 2922 2918 2960 2862 2879 2948 2941 2984 2907 2939 2946 2960 2920 2800 2919 2909 2957 2939 2949 2932 2789 2907 2958 2963 2926 2895 2960 2973 2875 2927 2869 2934 2926 2858 2963 2922 2869 2855 2966 2891 2882 2878 2910 2935 2922 2853 2876 2921 2953 2943 2877 2850 2951 2936 2928 2871 2921 2883 2928 2909 2919 2818 2966 2945 2863 2935 2870 2824

Tree=0
num_leaves=26
num_cat=0
split_feature=25 39 38 26 15 36 8 24 40 15 16 15 33 15 2 10 13 31 2 14 27 2 2 2 14
split_gain=2228.76 1156.26 1601.26 1326.05 726.037 508.637 473.3 440.314 472.544 566.448 436.117 352.795 286.479 283.801 874.467 281.237 319.574 272.746 272.587 270.703 241.761 316.631 237.413 225.277 197.775
threshold=1.0000000180025095e-35 1.0000000180025095e-35 1.0000000180025095e-35 1.0005005005005008 0.06718368061635456 1.0000000180025095e-35 16.082686882933711 3.5288733555160463 1.0000000180025095e-35 0.02149044792271575 0.14416652732771312 0.090077068524666862 0.00035257200028875009 0.0066096626129856012 158.00000000000003 0.99999999998881928 0.89658687422425898 1.2050130719479043e-16 94.500000000000014 0.79749866400340264 0.099999999999999964 495.50000000000006 141.00000000000003 58.500000000000007 0.9809361343329569
decision_type=2 2 2 2 2 2 2 2 2 2 2 2 2 2 2 2 2 2 2 2 2 2 2 2 2
left_child=1 2 3 5 6 -1 13 8 9 -5 -10 15 19 18 -15 20 22 -6 -4 -9 -3 23 -17 -22 -23
right_child=-2 11 4 7 17 -7 -8 12 10 -11 -12 -13 -14 14 -16 16 -18 -19 -20 -21 21 24 -24 -25 -26
leaf_value=-0.48395892604820573 -0.58949128484898694 -0.48370009709612111 -0.42262337659693106 -0.44247057153186092 -0.46348395098124223 -0.54815046918885613 -0.35109440042306417 -0.43653211554192911 -0.53304449778579921 -0.48316303702992625 -0.46280121048983774 -0.51123037207716482 -0.42063423443225006 -0.41959087936450296 -0.30166942047326817 -0.42521363487570418 -0.34900546853477576 -0.58057595802493267 -0.47747700290913114 -0.45901112530635979 -0.41204775343262023 -0.29809349352513337 -0.31242139682182934 -0.44417574979518765 -0.42890233520503407
leaf_weight=2513.1113148033619 580.65258744359016 340.34108492732048 1355.2956087887287 5454.4372597932816 258.52513062953949 913.04723653197289 586.97934964299202 5435.3849369585514 929.25233328342438 2816.3322787284851 983.50750717520714 213.93008357286453 2407.8334624171257 4133.9338553547859 372.98484778404236 1041.5726760327816 651.8594257235527 182.8348071873188 778.89530175924301 6317.3092381060123 3094.4463931322098 182.67591381072998 113.90759497880936 1957.3603993952274 100.98051166534424
leaf_count=9103 2423 1233 4475 18576 908 3613 1719 18343 3604 10188 3453 806 7926 13586 996 3453 1902 755 2794 22059 10048 484 310 6683 336
internal_value=-0.446351 -0.444421 -0.450044 -0.458274 -0.420267 -0.501109 -0.414666 -0.452239 -0.463938 -0.456309 -0.496848 -0.418548 -0.443836 -0.420308 -0.409798 -0.415879 -0.39045 -0.511652 -0.442572 -0.448602 -0.424003 -0.420167 -0.413963 -0.424466 -0.344127
internal_weight=43717.4 43136.7 35439.7 27770.2 7669.45 3426.16 7228.09 24344.1 10183.5 8270.77 1912.76 7697.07 14160.5 6641.11 4506.92 7483.14 1807.34 441.36 2134.19 11752.7 5675.8 5335.46 1155.48 5051.81 283.656
internal_count=149776 147353 122098 96865 25233 12716 23570 84149 35821 28764 7057 25255 48328 21851 14582 24449 5665 1663 7269 40402 18784 17551 3763 16731 820
is_linear=0
shrinkage=1


Tree=1
num_leaves=26
num_cat=0
split_feature=42 35 24 40 30 23 6 5 19 31 41 1 6 27 1 12 29 34 16 8 21 34 9 6 5
split_gain=3949.53 2846.55 1081.97 1080.4 1836.06 910.687 755.978 557.831 522.065 497.964 405.317 397.859 367.355 326.331 291.564 268.684 253.193 230.603 309.516 227.199 224.253 190.095 188.211 162.468 145.56
threshold=1.0000000180025095e-35 1.0000000180025095e-35 2.2050520407147505 1.0000000180025095e-35 0.026157807243689307 0.97777515041643681 22808.886363636368 0.65944115549644355 0.0070031847133757508 4.8168384452206775e-35 1.0000000180025095e-35 1118.5000000000002 9.1298880597014946 41.900000000000006 44.500000000000007 0.44534499001908118 0.015288646502387352 0.98162154966311677 0.055390683309570608 1.4888322402131586 29.461918408600301 0.061041455160744502 0.25992759709884428 95.619047619047635 0.2122922077008996
decision_type=2 2 2 2 2 2 2 2 2 2 2 2 2 2 2 2 2 2 2 2 2 2 2 2 2
left_child=1 3 8 5 6 7 15 10 17 22 12 -7 -1 19 -11 16 -5 18 -2 -4 -10 -16 -6 -24 -12
right_child=2 -3 13 4 9 11 -8 -9 20 14 24 -13 -14 -15 21 -17 -18 -19 -20 -21 -22 -23 23 -25 -26
leaf_value=0.081871168324697749 0.011302377131042986 -0.1195210312069578 0.002559928936852366 0.036209099719287714 -0.082157559111880774 0.0073715175780870576 -0.095880120891726775 0.14951361259485602 -0.068640766846839354 -0.044403894086737374 0.068851831707719108 -0.10215117525195613 0.044631771610020944 0.028570900198133301 0.10078677088676091 -0.0026020747010849347 0.078487189384059464 -0.10761784249421137 -0.099036862514313428 -0.048049696764609247 0.0079142626663201033 0.0038008426600428494 0.013496172954105897 -0.11069975741648076 0.006834026191091005
leaf_weight=1551.7318342626095 257.04868774116039 574.82317994534969 1389.8945563137531 1303.0028539747 998.94494572281837 818.33262890577316 189.87414665520191 323.85259403288364 299.7739674448967 335.58887280523777 7242.9507145732641 229.42424649000168 20941.810440540314 1685.2865303456783 195.40689693391323 392.95673763751984 1927.1721782237291 946.15327543020248 291.07946191728115 729.96385470032692 662.50784230232239 256.40643414855003 235.67803756892681 74.687398105859756 216.44333159923553
leaf_count=4843 914 2427 4951 4413 4055 2917 775 889 1184 1282 23336 957 69697 5776 595 1429 6117 4025 1206 2802 2350 913 839 314 770
internal_value=0.0339457 0.042912 -0.0201702 0.0454238 0.0165268 0.0508707 0.0469606 0.053206 -0.0582448 -0.0387474 0.0521596 -0.0164687 0.0472075 0.00437126 0.0073259 0.054488 0.0614795 -0.0854907 -0.0470206 -0.0147969 -0.0157797 0.0460803 -0.0665693 -0.0159128 0.0670724
internal_weight=44070.8 37809.1 6261.71 37234.3 5909.72 31324.5 3813.01 30276.8 2456.56 2096.71 29952.9 1047.76 22493.5 3805.14 787.402 3623.13 3230.18 1494.28 548.128 2119.86 962.282 451.813 1309.31 310.365 7459.39
internal_count=149776 126568 23208 124141 20732 103409 12734 99535 9679 7998 98646 3874 74540 13529 2790 11959 10530 6145 2120 7753 3534 1508 5208 1153 24106
is_linear=0
shrinkage=0.0735879


Tree=2
num_leaves=26
num_cat=0
split_feature=42 18 40 30 23 0 18 26 0 6 31 14 33 2 8 7 6 31 8 9 7 14 30 38 14
split_gain=3351.28 3068.74 753.758 1572.82 796.272 719.432 427.825 393.1 366.664 326.631 440.905 384.998 303.897 344.255 268.573 395.913 347.858 241.817 241.225 252.413 236.009 233.484 223.877 216.436 208.639
threshold=1.0000000180025095e-35 0.025501677852348952 1.0000000180025095e-35 0.045465262623126758 0.98002502502502509 28553.000000000004 0.98064780521262007 1.4496685903471456 1122.5000000000002 5.8552083333333345 1.0880493707413026e-10 0.9809361343329569 0.34543470388734221 141.00000000000003 1.3980953257269049 4.5000000000000009 55.686868686868699 9.9543026489788421e-35 38.298730395817778 0.018312327155420503 9.5000000000000018 0.81807321408163391 0.0021883459215224503 1.0000000180025095e-35 0.90671332153281503
decision_type=2 2 2 2 2 2 2 2 2 2 2 2 2 2 2 2 2 2 2 2 2 2 2 2 2
left_child=2 -2 4 5 9 7 14 -4 -6 11 12 -1 13 -11 -3 16 -16 -5 19 -12 -19 -14 -7 -20 -9
right_child=1 6 3 17 8 22 -8 24 -10 10 18 -13 21 -15 15 -17 -18 20 23 -21 -22 -23 -24 -25 -26
leaf_value=0.1100191153334145 -0.094789182254944496 0.041025122697558314 -0.018391438578817001 -0.071026854459919839 -0.10676347372778471 0.024372237726194981 -0.043331969042307079 0.068401865987034419 0.0022066372003740216 0.041760882744209117 -0.025181172857352007 0.024388279606596446 0.03361525700426448 0.074917557790100883 -0.052415601464592225 0.067980240839982123 0.036651131750230256 -0.042692544568644908 -0.00068648863618258921 0.04216954966206278 0.060222434932685365 0.081323535816318973 -0.069420099493415585 -0.10292083451413607 0.025858066116621208
leaf_weight=875.68964813649654 1969.2100918591022 2283.1434999108315 407.99176485836506 975.40506947040558 219.15000669658184 208.55898603796959 563.51943506300449 2534.7786488384008 694.78620621562004 22511.695152401924 371.01299215853214 428.41521190106869 756.49822987616062 1847.97779263556 702.15573859214783 350.34396433830261 356.8547640889883 381.08662030100822 580.33506296575069 1551.0582739561796 175.94865493476391 2226.2792765498161 395.48338185250759 139.88820514082909 845.10996796190739
leaf_count=2517 8328 7646 1511 3988 947 713 2143 8012 2494 74245 1358 1456 2524 5713 2746 1129 1216 1461 2059 5098 568 6834 1576 591 2903
internal_value=0.0312219 -0.018822 0.0393968 0.015235 0.0438372 0.0376512 0.0162922 0.0495616 -0.0237607 0.0458165 0.0442376 0.0820038 0.0470143 0.0442824 0.0254323 6.568e-05 -0.0222613 -0.0489112 0.015448 0.029091 -0.00991556 0.0692741 -0.0367886 -0.0207532 0.0578087
internal_weight=44352.4 6225.23 38127.1 5924.36 32202.8 4391.92 4256.02 3787.88 913.936 31288.8 29984.7 1304.1 27342.5 24359.7 3692.5 1409.35 1059.01 1532.44 2642.29 1922.07 557.035 2982.78 604.042 720.223 3379.89
internal_count=149776 23208 126568 20732 105836 14715 14880 12426 3441 102395 98422 3973 89316 79958 12737 5091 3962 6017 9106 6456 2029 9358 2289 2650 10915
is_linear=0
shrinkage=0.0735879


Tree=3
num_leaves=26
num_cat=0
split_feature=18 36 0 27 18 37 14 15 10 1 38 28 15 18 22 38 12 23 5 27 11 6 38 12 2
split_gain=1809.53 2081.54 649.789 1018.29 716.064 442.155 419.345 423.182 384.481 313.687 312.215 304.827 295.488 273.733 234.758 224.926 213.335 200.835 194.257 172.956 313.018 148.326 138.9 156.973 137.517
threshold=0.038021739130434752 1.0000000180025095e-35 49409.500000000007 1.0000000180025095e-35 0.0014254419785558004 1.0000000180025095e-35 0.97326133036724538 0.057167361571222056 1.0000000000000002 283.50000000000006 1.0000000180025095e-35 0.93966257592352898 0.0041227344803206013 0.99900200000000006 287.81332472729565 1.0000000180025095e-35 0.11681091878091872 0.01122789060114295 9.5785159584259807e-05 8.4333333333333353 0.022182352359138003 8.6935020478024345 1.0000000180025095e-35 0.29095433007573701 99.500000000000014
decision_type=2 2 2 2 2 2 2 2 2 2 2 2 2 2 2 2 2 2 2 2 2 2 2 2 2
left_child=1 2 3 5 -5 11 7 9 17 14 -6 16 -3 -9 19 -11 -1 -4 -14 20 -2 -12 -16 -24 -8
right_child=6 12 8 4 10 -7 24 13 -10 15 21 -13 18 -15 22 -17 -18 -19 -20 -21 -22 -23 23 -25 -26
leaf_value=0.068690142611784868 0.0074620250984657518 -0.0048083020627017487 0.049919412650840767 -0.05612497045634781 0.017456523418793796 0.093947804386822903 0.026935343526520179 0.020256579292081304 0.095936586147415348 0.065624792165733692 0.11057400092031931 0.0023537597535455935 -0.091114751840614183 -0.072747308252420845 0.058093454757559372 0.14707394707277974 -0.095833866172823828 -0.0042730178728118944 -0.03196056351999306 0.045186982264243829 0.041688320222673048 0.045415703766035286 -0.031489918792022217 0.12635369512831915 -0.00083966864586864688
leaf_weight=43.927812620997429 2126.7844424843788 391.42467959225178 1137.3473922908306 625.84016279876232 5325.2124153524637 100.98644733428955 2507.3836477100849 2495.3362540155649 750.49141554534435 944.51414993405342 225.17508772015572 264.7257125377655 1226.9455098807812 183.43884807825089 1324.1085644066334 233.63386309146881 822.90924191474915 541.87023766338825 409.75548696517944 15003.256068095565 4605.1329522877932 1353.0728473961353 36.434851631522179 327.40384179353714 1552.88622418046
leaf_count=142 7357 1381 3693 2528 18447 311 8452 8535 2232 2922 633 952 4944 718 4147 593 3529 1950 1508 48881 15048 4369 132 902 5470
internal_value=0.0287685 0.00592231 0.0183632 0.00900509 0.0191698 -0.0529661 0.0384004 0.0416879 0.052048 0.044715 0.0260175 -0.066211 -0.0626546 0.0138315 0.0428379 0.0819056 -0.0873226 0.0323429 -0.0763972 0.0407681 0.0308976 0.0548081 0.0694008 0.110135 0.0162757
internal_weight=44560 13219.7 11191.6 8761.85 7529.3 1232.55 31340.3 27280 2429.71 24601.3 6903.46 1131.56 2028.13 2678.78 23423.1 1178.15 866.837 1679.22 1636.7 21735.2 6731.92 1578.25 1687.95 363.839 4060.27
internal_count=149776 46619 38786 30911 25977 4934 103157 89235 7875 79982 23449 4623 7833 9253 76467 3515 3671 5643 6452 71286 22405 5002 5181 1034 13922
is_linear=0
shrinkage=0.0735879


Tree=4
num_leaves=26
num_cat=0
split_feature=42 18 35 36 18 40 14 3 27 6 18 6 6 17 18 10 2 24 8 1 10 22 18 32 24
split_gain=2784.74 2574.57 2420.04 1349.94 2286.43 1355.1 790.889 615.992 614.484 531.172 520.868 475.278 454.239 370.602 356.414 364.57 349.56 309.166 227.511 222.603 184.292 181.208 413.487 180.246 174.716
threshold=1.0000000180025095e-35 0.025501677852348952 1.0000000180025095e-35 1.0000000180025095e-35 0.036001800180018008 1.0000000180025095e-35 0.90791286119071801 21.500000000000004 1.0000000180025095e-35 1249.6562500000002 0.99251044874615058 5.8552083333333345 26.33289473684211 7.941964498593347e-05 0.98064780521262007 0.63864442907533736 74.500000000000014 4.352597096441877 12.592509247044829 101.00000000000001 0.41803921718655235 1.4729853954598171 0.99547445179975191 0.70009682238232174 5.6438220158234316
decision_type=2 2 2 2 2 2 2 2 2 2 2 2 2 2 2 2 2 2 2 2 2 2 2 2 2
left_child=2 -2 3 5 13 7 9 8 12 17 -8 -10 -1 -5 15 20 19 -7 24 -9 -3 22 -6 -15 -17
right_child=1 14 -4 4 21 6 10 16 11 -11 -12 -13 -14 23 -16 18 -18 -19 -20 -21 -22 -23 -24 -25 -26
leaf_value=-0.034752706951441191 -0.09033577697344311 0.03358346812081095 -0.11706492482731691 -0.074407681600995187 0.031633813857780808 0.017312649510900092 -0.051031442099644463 0.077488860727430872 0.099462163407300325 -0.03945102558164347 0.029755253751868792 0.048188977584772474 0.050314578178210799 0.075854818117213577 -0.042247296477637669 0.039261200904999183 0.13407326047960411 0.061661222951620784 -0.024908151075756908 -0.038079624803380473 -0.07134742827539331 0.050282612680373831 -0.047175447797721141 -0.037246542084468197 -0.063582733153947607
leaf_weight=823.22539506852627 1908.5318738222122 124.06248070299625 566.11738324165344 1641.6173722147942 2996.1681885421276 1609.1235804408789 1394.4945138543844 680.84295220673084 1033.8417916893959 508.51935718953609 623.74552929401398 20743.11339686811 578.92053072154522 138.45067468285561 561.12203571200371 2828.4198468774557 709.44764998555183 1835.6503558456898 371.79446870088577 102.18343006074429 321.14033074676991 1977.3343216180801 408.42893248796463 168.37967613339424 91.271441519260406
leaf_count=3186 8328 410 2427 6587 9817 5516 5501 2062 2927 1931 2094 65851 1850 430 2143 9296 1881 5690 1394 375 1289 6296 1514 633 348
internal_value=0.026528 -0.019203 0.0338964 0.0361509 0.00775809 0.0429381 0.0114513 0.0505531 0.0475898 0.0306036 -0.0259898 0.0506301 0.000263432 -0.0605189 0.0123504 0.0205893 0.0964746 0.0409888 0.0290697 0.0622157 -0.0417704 0.0325047 0.0221354 0.0133015 0.0359946
internal_weight=44745.9 6206.34 38539.6 37973.5 7330.38 30643.1 5971.53 24671.6 23179.1 3953.29 2018.24 21777 1402.15 1948.45 4297.81 3736.69 1492.47 3444.77 3291.49 783.026 445.203 5381.93 3404.6 306.83 2919.69
internal_count=149776 23208 126568 124141 25277 98864 20732 78132 73814 13137 7595 68778 5036 7650 14880 12737 4318 11206 11038 2437 1699 17627 11331 1063 9644
is_linear=0
shrinkage=0.0735879


Tree=5
num_leaves=26
num_cat=0
split_feature=42 18 35 40 30 0 23 10 2 0 23 16 11 11 30 18 10 37 27 20 8 23 10 24 0
split_gain=2380.81 2286.79 2115.06 674.696 1307.56 551.036 508.326 453.132 657.566 378.912 386.12 378.643 372.288 572.976 317.735 306.905 312.959 205.195 204.712 195.798 193.949 176.137 161.717 149.885 139.498
threshold=1.0000000180025095e-35 0.025501677852348952 1.0000000180025095e-35 1.0000000180025095e-35 0.026157807243689307 290026.00000000006 0.9857613139198026 0.99999999999999412 141.00000000000003 2544.0000000000005 0.20064763401431815 0.39186496644922836 0.019546273335637552 0.022182352359138003 0.13143836797936648 0.98064780521262007 0.63864442907533736 1.0000000180025095e-35 0.16666666666666669 0.64400435840577297 12.592509247044829 0.71148582830217555 0.41803921718655235 5.6438220158234316 28553.000000000004
decision_type=2 2 2 2 2 2 2 2 2 2 2 2 2 2 2 2 2 2 2 2 2 2 2 2 2
left_child=2 -2 3 6 5 21 7 12 11 10 14 -9 19 -14 -6 16 22 18 -8 -1 23 24 -3 -18 -5
right_child=1 15 -4 4 9 -7 17 8 -10 -11 -12 -13 13 -15 -16 -17 20 -19 -20 -21 -22 -23 -24 -25 -26
leaf_value=0.072429350850443011 -0.086385385638058129 0.030926948344244341 -0.11223560710840436 0.051434565422406223 0.020188764685117443 -0.085151716530791885 -0.08273291219535342 0.055878397907012177 0.10794931572470472 -0.10364322967873971 -0.089867756177553174 0.012222910304764894 -0.01324102325443099 0.033910019567965889 -0.057653971826197706 -0.039549054001973234 0.03611672556194602 0.13479578082218513 0.024241086233739974 0.031540434325242603 -0.023219172769298808 -0.015256400304206623 -0.067375871966796355 -0.05964600936299233 0.001625358223568709
leaf_weight=1928.4700278788805 1851.119282245636 124.77778129279613 547.71311675012112 3098.7596631795168 928.89326137304306 193.39591650664806 317.16953048110008 4574.4241867363453 1085.8181539773941 375.52763450145721 355.79369692504406 1419.0200055986643 1494.4724193364382 20191.673273995519 408.58231292665005 555.51461789011955 2847.6348314285278 34.587978467345238 136.74434025585651 968.53503839671612 369.57742494344711 265.89542067050934 315.27078464627266 90.178631037473679 344.57423135638237
leaf_count=5761 8328 410 2427 9730 3233 812 1360 14239 2965 1618 1536 4776 5313 65285 1611 2143 9296 97 470 3143 1394 977 1289 348 1215
internal_value=0.0245127 -0.0179845 0.0312798 0.0333457 0.0105948 0.0356856 0.0375665 0.0387182 0.055157 -0.0366645 -0.0217209 0.0455675 0.0339781 0.0306538 -0.00347972 0.0114068 0.0190005 -0.0367693 -0.0501768 0.0588112 0.0267844 0.0420267 -0.0391613 0.0331259 0.0464937
internal_weight=44824.1 6154.07 38670.1 38122.3 5971.42 3902.63 32150.9 31662.4 7079.26 2068.8 1693.27 5993.44 24583.2 21686.1 1337.48 4302.95 3747.44 488.502 453.914 2897.01 3307.39 3709.23 440.049 2937.81 3443.33
internal_count=149776 23208 126568 124141 20732 12734 103409 101482 21980 7998 6380 19015 79502 70598 4844 14880 12737 1927 1830 8904 11038 11922 1699 9644 10945
is_linear=0
shrinkage=0.0735879


Tree=6
num_leaves=26
num_cat=0
split_feature=42 35 36 40 30 26 26 15 13 13 15 13 15 33 6 13 3 31 7 17 13 30 15 17 27
split_gain=2037.73 1855.38 1165.54 1011.44 1129.14 813.852 808.312 704.427 753.605 572.639 523.229 450.07 377.899 347.879 199.022 407.552 267.432 191.794 191.43 185.602 207.154 172.409 159.237 157.054 145.127
threshold=1.0000000180025095e-35 1.0000000180025095e-35 1.0000000180025095e-35 1.0000000180025095e-35 0.045465262623126758 1.0005005005005008 1.0005005005005008 0.06718368061635456 0.94151178600753116 0.93422577527666684 0.0034926587934758506 0.98618433292176444 0.013655901421081152 1.0023781519447737e-05 24.243314722303854 0.98353529350530866 1.0000000180025095e-35 9.9543026489788421e-35 9.5000000000000018 1.4944090462597108e-05 0.88179057855235088 0.00074636861236005011 0.0040262896572440011 0.00050075225677030015 4.0333333333333341
decision_type=2 2 2 2 2 2 2 2 2 2 2 2 2 2 2 2 2 2 2 2 2 2 2 2 2
left_child=1 2 3 7 10 -4 22 8 9 -1 21 -10 -8 19 15 -9 -16 -6 -19 20 -7 -5 -2 -12 -14
right_child=6 -3 5 4 17 13 12 14 11 -11 23 -13 24 -15 16 -17 -18 18 -20 -21 -22 -23 -24 -25 -26
leaf_value=0.044443900692689185 -0.0051309137527207425 -0.10810268729305055 -0.061366038997135927 0.037149523165488675 -0.065614731953659453 0.0060009773884546341 0.017321782639292765 -0.04280698188772377 0.11757482391259359 -0.080607442320900557 0.040618668855679489 0.018333725307826579 -0.049532915596950298 0.046974993770641862 -0.023423126724318875 0.094827003049332975 0.076252049726249452 -0.040737642326473915 0.05150663085872275 0.044336332767677032 -0.040206523015871527 -0.075032095099804658 -0.080425483359892594 -0.014912112935436143 -0.011040757682826242
leaf_weight=21618.920629546046 182.32953289151192 527.56310360133648 892.92113107442856 94.026142463088036 943.92490507662296 3956.2808045744896 2420.7846190482378 859.20803381502628 1202.1686387956142 199.27371184527874 3746.9260713756084 316.30188976228237 797.85461890697479 1339.4741199612617 268.58511474728584 134.25379991531372 314.40563437342644 377.47765077650547 179.02521541714668 571.91083291172981 605.80637572705746 326.36179877817631 1069.5128248482943 293.57247425615788 1625.8489420264959
leaf_count=67574 716 2427 3613 316 3988 13421 8339 3225 3232 767 11959 1027 3198 4184 951 391 965 1461 568 1813 2246 1367 5026 1073 5929
internal_value=0.0226719 0.0288924 0.0307863 0.0370623 0.00980155 0.00446178 -0.0168612 0.0435793 0.0467959 0.0432948 0.0283962 0.0970016 -0.00320757 0.013565 -0.00394219 -0.0240555 0.0300753 -0.0453818 -0.0107933 0.00481899 -0.000102294 -0.0495844 -0.0695787 0.0365468 -0.023774
internal_weight=44864.7 38768.4 38240.8 30874.4 5961.31 7366.39 6096.33 24913.1 23336.7 21818.2 4460.89 1518.47 4844.49 6473.47 1576.45 993.462 582.991 1500.43 556.503 5134 4562.09 420.388 1251.84 4040.5 2423.7
internal_count=149776 126568 124141 98864 20732 25277 23208 78132 72600 68341 14715 4259 17466 21664 5532 3616 1916 6017 2029 17480 15667 1683 5742 13032 9127
is_linear=0
shrinkage=0.0735879


Tree=7
num_leaves=26
num_cat=0
split_feature=42 35 36 40 30 26 26 15 8 0 5 0 23 15 4 13 33 34 23 16 26 24 26 11 16
split_gain=1746.21 1633.47 994.103 859.042 993.258 721.816 708.163 599.714 672.752 434.032 341.475 335.884 334.003 325.48 310.263 305.558 296.43 248.077 201.148 186.525 173.496 194.978 167.377 154.918 146.826
threshold=1.0000000180025095e-35 1.0000000180025095e-35 1.0000000180025095e-35 1.0000000180025095e-35 0.026157807243689307 1.0005005005005008 1.0005005005005008 0.06718368061635456 16.082686882933711 290026.00000000006 0.65944115549644355 2544.0000000000005 0.20064763401431815 0.013655901421081152 0.50961894191638935 0.98618433292176444 1.0023781519447737e-05 0.98162154966311677 0.21375828719084533 0.059104476100660108 6.3346994535519139 2.7934268540320475 1.0005005005005008 0.060077884448136352 0.50373155054398555
decision_type=2 2 2 2 2 2 2 2 2 2 2 2 2 2 2 2 2 2 2 2 2 2 2 2 2
left_child=1 2 3 7 9 17 23 8 10 22 -1 12 -6 -7 24 -10 20 19 -15 -2 21 -8 -5 -4 -9
right_child=5 -3 6 4 11 13 16 14 15 -11 -12 -13 -14 18 -16 -17 -18 -19 -20 -21 -22 -23 -24 -25 -26
leaf_value=0.038319739819255183 0.021918322434340724 -0.10453298471820772 -0.088736115345157213 -0.020409057292945728 -0.0019795848679655527 0.015993561894569956 -0.064793886166269118 -0.019535340201076733 0.096261634214047404 -0.078935563971576111 0.12520129528572871 -0.097566435329776893 -0.083928564502793235 -0.011836608865507803 0.11841038622672782 0.016954023792609255 0.043303062528079361 -0.090769173093973365 -0.066390107927564945 -0.076306453552242998 0.020614607737142271 -0.00074344287257980895 0.040429512189398928 -0.026270050893984834 0.065155172112037127
leaf_weight=21159.871753111482 239.02238509058952 506.23237273097038 441.6267077922821 260.01930393278599 1326.1384784281254 2428.5782085508108 284.72411058843136 1347.9496302008629 1699.9243303537369 185.48189494013786 249.42519935965538 357.7240052819252 339.25931426882744 1955.329557210207 104.95905704796314 316.85122975707054 1345.8657117784023 793.06591136753559 453.65077582001686 184.23510557413101 2119.2313109487295 2731.9448338001966 3480.215533003211 436.14832742512226 120.14716808497906
leaf_count=66225 857 2427 1929 963 4844 8339 1102 4874 4714 812 634 1618 1536 7181 282 1027 4184 4010 1946 875 7015 9363 10959 1684 376
internal_value=0.0209885 0.0267233 0.0284618 0.0342433 0.00907775 -0.015755 0.00412943 0.0402257 0.0431797 0.0306835 0.039339 -0.0327724 -0.0187641 -0.00298121 -0.00367051 0.0838763 0.0125487 -0.0664352 -0.0221725 -0.0204845 0.00446025 -0.00683872 0.0361599 -0.0578697 -0.0125017
internal_weight=44867.6 38813.7 38307.5 30948 5948.84 6053.88 7359.54 24999.1 23426.1 3925.72 21409.3 2023.12 1665.4 4837.56 1573.06 2016.78 6481.77 1216.32 2408.98 423.257 5135.9 3016.67 3740.23 877.775 1468.1
internal_count=149776 126568 124141 98864 20732 23208 25277 78132 72600 12734 66859 7998 6380 17466 5532 5741 21664 5742 9127 1732 17480 10465 11922 3613 5250
is_linear=0
shrinkage=0.0735879


Tree=8
num_leaves=26
num_cat=0
split_feature=35 18 36 25 0 27 8 9 15 15 9 11 38 40 6 13 15 13 15 24 40 11 30 38 5
split_gain=1321.82 996.685 1486.58 768.883 435.452 522.319 358.013 334.309 350.413 321.269 410.733 297.308 290.722 274.221 347.18 310.078 269.889 261.895 246.498 200.86 193.88 187.675 157.997 146.146 139.36
threshold=1.0000000180025095e-35 0.038021739130434752 1.0000000180025095e-35 1.0000000180025095e-35 49409.500000000007 1.0000000180025095e-35 12.429731297119661 0.91703400352468434 0.0083611632347885528 0.015049298335892051 0.087389516926009159 0.022182352359138003 1.0000000180025095e-35 1.0000000180025095e-35 78.89444444444446 0.42200896548722638 0.010036988748396701 0.79655807758112729 0.0041227344803206013 5.6438220158234316 1.0000000180025095e-35 0.16087864888381689 0.0010041047835700004 1.0000000180025095e-35 0.00045480402561420006
decision_type=2 2 2 2 2 2 2 2 2 2 2 2 2 2 2 2 2 2 2 2 2 2 2 2 2
left_child=1 2 3 4 5 21 20 8 13 10 12 23 -10 14 -3 -15 -12 -7 -4 -16 -6 -1 -17 -11 -20
right_child=-2 7 18 -5 6 17 -8 -9 9 11 16 -13 -14 15 19 22 -18 -19 24 -21 -22 -23 -24 -25 -26
leaf_value=-0.053924769098721424 -0.10142516545013526 0.0031610297401902668 -0.0026202774566903438 -0.081611353840990067 0.029195761137797985 0.02819769631418699 0.07967454973109156 -0.080746451066866967 0.055713303927325646 0.011588611922437065 0.052683829844967507 0.032327274737333066 0.112965188368605 0.039837696945879193 0.038009881680702018 0.02711691317615229 0.0091119365347047555 -0.00062613486560895873 -0.081205812007403663 -0.0092200231825038618 -0.07598384676711141 0.036715843793081467 -0.045315613608158549 -0.038982723540580085 -0.029737784378891578
leaf_weight=829.01728051900864 484.17909826338291 3261.0311086773872 387.80192452669144 435.60847817361355 1169.2955758869648 4399.7546247839928 998.54605433344841 152.16057538986206 2468.6712849736214 1889.5979205965996 1423.44586789608 12538.536303713918 605.80197302997112 454.70413641631603 5033.5417599380016 196.07511289417744 1698.3038045763969 2772.7654277533293 1180.6000804007053 534.40396420657635 102.60851266980171 143.34957042336464 906.9853980243206 369.48430082201958 389.10453887283802
leaf_count=3432 2427 10942 1381 2339 3760 14581 2924 600 7471 6367 4406 40152 1608 1448 15729 650 5624 9634 5007 1826 454 489 3722 1358 1445
internal_value=0.0194496 0.0207729 0.0034489 0.014108 0.0181258 0.010158 0.0466429 0.0278051 0.0283363 0.0338134 0.047915 0.0278985 0.0670436 0.0172515 0.0222795 -0.0111501 0.0290279 0.0170341 -0.0555601 0.0334499 0.020592 -0.0404078 -0.0323044 0.00325091 -0.0685436
internal_weight=44825.4 44341.2 12808.5 10850.9 10415.3 8144.89 2270.45 31532.7 31380.6 20993.8 6196.22 14797.6 3074.47 10386.7 8828.98 1557.76 3121.75 7172.52 1957.51 5567.95 1271.9 972.367 1103.06 2259.08 1569.7
internal_count=149776 147349 45446 37613 35274 28136 7138 101903 101303 66986 19109 47877 9079 34317 28497 5820 10030 24215 7833 17555 4214 3921 4372 7725 6452
is_linear=0
shrinkage=0.0735879


Tree=9
num_leaves=26
num_cat=0
split_feature=35 25 23 36 40 30 15 10 0 33 37 19 24 1 14 24 36 23 37 30 24 12 12 5 21
split_gain=1174.91 752.292 551.776 407.923 387.16 871.988 537.14 459.948 379.217 296.016 227.748 214.307 236.29 212.448 208.072 149.351 104.351 104.352 92.6665 83.0845 60.8942 46.0962 49.7064 37.9763 27.841
threshold=1.0000000180025095e-35 1.0000000180025095e-35 0.97777515041643681 1.0000000180025095e-35 1.0000000180025095e-35 0.051626581439388759 0.06718368061635456 0.99999999999999412 28553.000000000004 1.0000000180025095e-35 1.0000000180025095e-35 0.007702503318394051 2.6182605345621544 1118.5000000000002 0.51347123947133622 3.4751238135907401 1.0000000180025095e-35 0.98605238366765924 1.0000000180025095e-35 0.077147060801440917 0.17741054480624963 0.58964359834701618 0.62967682409789172 0.33360611235581711 66.037978454937686
decision_type=2 2 2 2 2 2 2 2 2 2 2 2 2 2 2 2 2 2 2 2 2 2 2 2 2
left_child=1 2 3 4 6 8 7 -1 -6 11 -3 12 -5 16 -8 -7 17 20 -19 -13 -4 23 -23 -11 -15
right_child=-2 10 13 9 5 15 14 -9 -10 21 -12 19 -14 24 -16 -17 -18 18 -20 -21 -22 22 -24 -25 -26
leaf_value=0.025620568185973223 -0.098700698138823248 -0.094156520256481649 0.038769586476103395 -0.051279786500410644 0.031366477308374593 -0.071041526237254821 0.05707754852667353 0.048308917098095719 -0.031943483466688426 0.03600293571902255 0.11611109291573436 0.0045054135644316462 -0.002968852518678075 0 -0.020668029921308645 -0.021640388586010775 -0.069340056215908233 -0.043993798042612456 0.10003552306026219 0.032922703942854382 -0.014159202690973694 -0.10931466381053496 0.033784296743528723 0.10065896314074431 -0.095760679812405977
leaf_weight=21652.501535415649 461.77318921685219 388.24239499866962 313.62193955481052 778.04960924386978 3925.9722754955292 615.38632874190807 211.30707414448261 6260.6443341970444 586.93561111390591 1278.8040043264627 29.418394058942795 2358.0506264865398 1881.4450661540031 14.970659673213957 1542.1278052479029 744.01022936403751 150.42341260612011 330.04269567131996 25.525942906737328 736.69084140658379 183.23320928215981 24.072285875678062 26.706865951418877 54.155276164412498 230.67060287296772
leaf_count=69614 2427 2255 1056 3183 12558 2748 678 19172 2319 3972 84 8018 6455 60 5695 2874 700 1323 70 2365 670 105 87 152 1136
internal_value=0.0180181 0.019237 0.0201744 0.021587 0.0248125 0.00751419 0.0282316 0.0307147 0.0230993 0.00550675 -0.0789835 -0.00181721 -0.017159 -0.027994 -0.011213 -0.0441146 -0.0127953 -0.00264028 -0.0332287 0.0113186 0.018949 0.036071 -0.0311193 0.0387433 -0.0894291
internal_weight=44804.8 44343 43925.3 42676.9 35538.9 5872.3 29666.6 27913.1 4512.91 7137.97 417.661 5754.24 2659.49 1248.49 1753.43 1359.4 1002.85 852.424 355.569 3094.74 496.855 1383.74 50.7792 1332.96 245.641
internal_count=149776 147349 145010 139995 115658 20499 95159 88786 14877 24337 2339 20021 9638 5015 6373 5622 3819 3119 1393 10383 1726 4316 192 4124 1196
is_linear=0
shrinkage=0.0735879


Tree=10
num_leaves=26
num_cat=0
split_feature=35 18 36 25 10 41 38 9 16 17 0 23 18 0 40 30 0 6 16 17 5 12 9 22 38
split_gain=1047.1 792.321 1196.14 601.961 360.088 336.459 313.552 288.709 281.924 272.693 260.983 223.56 179.613 192.188 158.838 738.179 242.728 240.9 223.419 147.775 133.052 109.6 103.542 103.207 71.4449
threshold=1.0000000180025095e-35 0.038021739130434752 1.0000000180025095e-35 1.0000000180025095e-35 1.0000000000000002 1.0000000180025095e-35 1.0000000180025095e-35 0.91703400352468434 0.021265416088164051 7.941964498593347e-05 19089.000000000004 0.51504458161865585 0.0080045766590389009 3451.0000000000005 1.0000000180025095e-35 0.084285923310387062 19994.500000000004 9.1298880597014946 0.17081943068088321 0.067477946836352415 0.23060234000004645 0.36682555857639421 0.20658959890049897 1.6240080692802648 1.0000000180025095e-35
decision_type=2 2 2 2 2 2 2 2 2 2 2 2 2 2 2 2 2 2 2 2 2 2 2 2 2
left_child=1 2 3 4 5 6 -1 8 22 12 -6 -11 -4 23 17 16 -16 24 -19 -5 -7 -17 -3 -14 -10
right_child=-2 7 9 19 10 20 -8 -9 14 11 -12 -13 13 -15 15 21 -18 18 -20 -21 -22 -23 -24 -25 -26
leaf_value=-0.0073318134645323739 -0.09629773788899626 0.01440753101661417 -0.088427205463933664 -0.092385693268717248 -0.0023785463266298816 0.038823291257347577 0.025683256174699055 -0.077373287940816882 0.053962824267164873 0.0579261260142565 0.083843667402127689 -0.072127863436403136 -0.089014155499817352 0.011676611776081479 0.03401643438083516 -0.084677878899295678 -0.020606676023025343 0.034601925001441464 0.02013498515909944 0.052662897725208518 -0.058547452252734174 -0.026995421246880341 -0.015400189196128775 -0.0203304774668846 0.1033125600903699
leaf_weight=4927.1665936857462 439.31145222485065 1413.6908345073462 800.5593930631876 356.57336640357971 262.38728572428226 2216.4608020633459 2276.1024730056524 150.4879977107048 770.33870290219784 200.76495839655399 659.59371756017208 110.71846422553062 337.36931389570236 268.17839454114437 3385.1165009140968 334.01525105535984 502.86114862561226 11839.239515379071 11447.658001080155 41.194164395332336 77.475236192345619 405.56311090290546 1138.6918828785419 192.47114440798759 212.95819666981697
leaf_count=17966 2427 4710 3564 2184 938 6935 7240 600 2293 625 1894 454 1429 963 10728 1501 1944 36960 36914 155 301 1654 4031 798 568
internal_value=0.0166978 0.017821 0.00230541 0.0117966 0.0152005 0.0109187 0.0030796 0.0240651 0.0245553 -0.0513659 0.0591436 0.0112157 -0.0636536 -0.0386122 0.0266262 0.0140688 0.0269131 0.0290143 0.0274965 -0.076986 0.035469 -0.0532503 0.00105077 -0.064348 0.0648046
internal_weight=44766.9 44327.6 12727 10817 10419.2 9497.21 7203.27 31600.6 31450.1 1910.06 921.981 311.483 1598.58 798.019 28897.8 4627.56 3887.98 24270.2 23286.9 397.768 2293.94 739.578 2552.38 529.84 983.297
internal_count=149776 147349 45446 37613 35274 32442 25206 101903 101303 7833 2832 1079 6754 3190 92562 15827 12672 76735 73874 2339 7236 3155 8741 2227 2861
is_linear=0
shrinkage=0.0735879


Tree=11
num_leaves=26
num_cat=0
split_feature=42 35 36 40 26 14 26 13 10 2 27 6 27 13 6 8 14 34 13 33 14 17 23 13 31
split_gain=1460.53 1029 619.815 571.424 484.344 460.962 413.266 348.008 328.617 618.11 359.063 385.976 303.274 243.617 229.826 211.4 205.232 194.902 189.807 189.338 174.27 142.653 209.06 142.746 138.788
threshold=1.0000000180025095e-35 1.0000000180025095e-35 1.0000000180025095e-35 1.0000000180025095e-35 1.0005005005005008 0.90791286119071801 1.0005005005005008 0.8665620188893236 0.99999999999999412 141.00000000000003 0.099999999999999964 11.06 4.0333333333333341 0.61100867144684301 37458.500000000007 1.4888322402131586 0.60826985203715245 0.97219047619047627 0.68228331378650209 1.0023781519447737e-05 0.93618957340574849 0.0010065342923715503 0.015875454759298104 0.88179057855235088 1.0770639545231289e-13
decision_type=2 2 2 2 2 2 2 2 2 2 2 2 2 2 2 2 2 2 2 2 2 2 2 2 2
left_child=1 2 3 8 17 7 -4 14 10 16 13 -12 -6 -1 -5 -7 -10 20 -14 21 -2 23 -23 -8 -17
right_child=4 -3 6 5 12 15 19 -9 9 -11 11 -13 18 -15 -16 24 -18 -19 -20 -21 -22 22 -24 -25 -26
leaf_value=-0.082152166638756838 -0.076511929450183869 -0.094166886235712399 -0.046766051828316259 0.014330979324848725 -0.041590820907848942 -0.0044391096074466964 0.0031831612422548701 0.067011727825842166 0.0086118278761036417 0.10384704415930954 0.061809656615291267 0.025759377098074687 0.014986930040114064 0.0034778170785347666 -0.081067823575069739 -0.06381372167665611 0.044931976592433219 -0.082919093865917198 -0.018975201911358167 0.033381443032752395 0.026104178177083767 0.089286759864723675 -0.0015523929369979414 -0.035271826653020817 0.057317461236901381
leaf_weight=224.33842024207115 154.65288645029068 417.03008437156677 812.83523185551167 3104.1522972285748 1130.4578261226416 1218.983591273427 3974.230963781476 711.41150562465191 1107.2942028492689 878.58555370569229 1790.2532873302698 16498.364545509219 2308.9336360394955 894.29691860079765 142.67050759494305 676.87165448069572 3672.704121530056 763.09345635771751 1449.895428955555 1353.1317082643509 210.33704583346844 240.54619756340981 311.93991926312447 601.37265078723431 54.096926137804985
leaf_count=1004 755 2427 3613 10349 4434 4508 13475 2103 3634 2361 5218 51737 7737 3095 685 2915 11083 4263 5295 4184 724 682 1052 2271 172
internal_value=0.0154831 0.0207309 0.0219869 0.0265322 -0.0182296 0.00591353 0.00266515 0.0203606 0.0313862 0.0470255 0.0268184 0.0292965 -0.00816592 -0.0135621 0.0100925 -0.023336 0.0365497 -0.0617138 0.00184684 0.00888772 -0.0169675 0.00239536 0.0377285 -0.00183838 -0.0546432
internal_weight=44702.5 38685.1 38268.1 30974 6017.37 5908.19 7294.06 3958.23 25065.8 5658.58 19407.3 18288.6 4889.29 1118.64 3246.82 1949.95 4780 1128.08 3758.83 6481.22 364.99 5128.09 552.486 4575.6 730.969
internal_count=149776 126568 124141 98864 23208 20732 25277 13137 78132 17078 61054 56955 17466 4099 11034 7595 14717 5742 13032 21664 1479 17480 1734 15746 3087
is_linear=0
shrinkage=0.0735879


Tree=12
num_leaves=26
num_cat=0
split_feature=42 36 26 26 15 15 1 2 27 11 12 3 11 11 3 22 17 14 11 34 14 27 11 38 11
split_gain=1258.07 464.567 437.904 360.228 273.483 358.58 592.013 392.034 264.089 260.27 361.574 239.207 232.405 224.374 211.351 209.34 235.865 202.907 189.964 182.237 154.639 152.944 137.352 127.476 152.26
threshold=1.0000000180025095e-35 1.0000000180025095e-35 1.0005005005005008 1.0005005005005008 0.06718368061635456 0.0083611632347885528 200.50000000000003 94.500000000000014 28.366666666666667 0.022182352359138003 0.21066185209080207 32.500000000000007 0.24706785031488046 0.16253964172491889 8.5000000000000018 1.4729853954598171 0.0010065342923715503 0.56886541593434325 0.04667831089757931 0.97219047619047627 0.93618957340574849 4.0333333333333341 0.060077884448136352 1.0000000180025095e-35 0.075699818505568325
decision_type=2 2 2 2 2 2 2 2 2 2 2 2 2 2 2 2 2 2 2 2 2 2 2 2 2
left_child=1 4 19 22 5 7 9 12 -4 14 -11 18 13 -1 -7 16 21 -6 -9 20 -2 -5 -3 -19 -25
right_child=2 3 8 15 17 6 -8 11 -10 10 -12 -13 -14 -15 -16 -17 -18 23 -20 -21 -22 -23 -24 24 -26
leaf_value=0.022640851193948128 -0.073459062018301644 -0.07556436599638286 -0.023721299994048029 -0.034764708814440617 0.056088468659881513 -0.0085305568936887861 0.075849912023149113 -0.038184253720596188 0.010563284373076276 0.04632727143481298 0.022330334500196659 0.082673893915880495 -0.038499469807939106 0.066599378480333399 0.10623930193737077 0.026963298827040412 0.06680216958945269 -0.0015701757586302479 0.0007864136527364258 -0.0804066766231471 0.024053989929381757 0.0014551035878343779 -0.01395634844738077 -0.091495447812108527 0.0020060212854198125
leaf_weight=5929.0144535303116 149.42644560337067 388.73000699281693 2586.4758559018373 779.68369777500629 274.73285029828548 1445.598280146718 1478.7491679936647 908.66791754961014 2290.3330282717943 5047.7583912163973 10565.50470636785 160.30396014451981 301.58164931833744 708.6735400557518 92.387087881565094 2156.630166053772 260.19007715582848 1413.2294311225414 2632.7596269249916 730.27221603691578 211.42472168803215 3283.3723230808973 409.5690795481205 210.23534919321537 165.46192261576653
leaf_count=19135 755 1929 9721 2877 859 4840 4290 3314 7745 15534 33818 491 1087 2127 249 6852 765 5075 9019 4263 724 11170 1684 891 562
internal_value=0.0143774 0.0192392 -0.0170533 0.00246804 0.0231299 0.0249558 0.0311181 0.014153 -0.00758929 0.0272526 0.0300982 -0.00515249 0.024473 0.0273568 -0.00153787 0.00823378 -0.00107478 -0.00269626 -0.00917063 -0.0592152 -0.0159123 -0.0054586 -0.0441448 -0.0118082 -0.0499195
internal_weight=44580.8 38612.8 5967.93 7278.18 31334.7 29271 18630 10641 4876.81 17151.2 15613.3 3701.73 6939.27 6637.69 1537.99 6479.88 4323.25 2063.66 3541.43 1091.12 360.851 4063.06 798.299 1788.93 375.697
internal_count=149776 126568 23208 25277 101291 93904 58731 35173 17466 54441 49352 12824 22349 21262 5089 21664 14812 7387 12333 5742 1479 14047 3613 6528 1453
is_linear=0
shrinkage=0.0735879


Tree=13
num_leaves=26
num_cat=0
split_feature=42 18 35 36 18 40 14 3 14 1 18 13 18 17 10 0 14 0 0 23 12 34 13 24 18
split_gain=1082.48 1471.04 916.859 461.646 1168.12 489.624 388.8 321.712 413.778 421.272 318.882 303.986 295.854 225.182 222.814 201.756 188.76 185.485 168.405 160.576 151.398 137.63 136.999 143.857 129.191
threshold=1.0000000180025095e-35 0.034029516612647207 1.0000000180025095e-35 1.0000000180025095e-35 0.025501677852348952 1.0000000180025095e-35 0.90791286119071801 21.500000000000004 0.9787345839118361 495.50000000000006 0.99251044874615058 0.8665620188893236 0.98064780521262007 1.0000000180025095e-35 0.63864442907533736 238717.00000000003 0.98791764958141692 19994.500000000004 387661.00000000006 0.51504458161865585 0.30780917495998095 0.5827500000000001 0.89391246275674829 5.6438220158234316 0.99547445179975191
decision_type=2 2 2 2 2 2 2 2 2 2 2 2 2 2 2 2 2 2 2 2 2 2 2 2 2
left_child=2 -2 3 5 13 7 11 8 9 -1 -8 17 14 -5 21 16 -9 -7 -17 -15 -10 -3 23 -16 -6
right_child=1 12 -4 4 24 6 10 15 20 -11 -12 -13 -14 19 22 18 -18 -19 -20 -21 -22 -23 -24 -25 -26
leaf_value=0.026354837129280578 -0.070399555241434583 0.016290770781079267 -0.092806223386836376 -0.069619786198019368 0.022117264780075075 0.014819491193915383 -0.043651969733917897 0.074376282481702111 0.057771983644562673 0.086233681854032185 0.020013278081014357 0.060611917456876628 -0.041031247766062699 0.045428271907087661 0.032706127915095223 -0.12142439571288778 -0.058812023311037243 -0.034757358507324934 0.066311706341419349 -0.069786521022651885 -0.014843352435150231 -0.069828769683145692 -0.015730978989500877 -0.061122603215100095 -0.0077705121644460785
leaf_weight=21040.395844936371 1848.3224778026342 167.81888018548489 400.88329048454762 1207.6412221044302 4846.5015255510807 2773.5458951592445 1318.2438198626041 1304.0993537157774 170.80710166692734 658.58029526472092 625.71663928031921 713.38211727142334 556.76523919403553 179.37500029802322 2601.3531070053577 57.877657666802406 59.008502081036568 478.00622913241386 45.727884784340858 102.99002495408058 1675.8127183765173 241.98883756995201 414.59435103833675 90.510811686515808 925.87172316014767
leaf_count=65681 9277 567 2427 5470 15711 9085 5501 3751 532 1888 2094 2103 2143 554 8286 227 210 1949 130 438 5713 1048 1539 348 3104
internal_value=0.0133389 -0.0159434 0.0178365 0.0190021 0.00228323 0.022924 0.0038428 0.0274257 0.0253318 0.0281792 -0.0230826 0.0170818 0.00873198 -0.0557816 0.0166542 0.0609368 0.0685001 0.00748508 -0.037122 0.00287287 -0.00804509 -0.0341977 0.023411 0.0294953 0.0172974
internal_weight=44505.8 5921.35 38584.5 38183.6 7262.38 30921.2 5908.89 25012.3 23545.6 21699 1943.96 3964.93 4073.03 1490.01 3516.27 1466.71 1363.11 3251.55 103.606 282.365 1846.62 409.808 3106.46 2691.86 5772.37
internal_count=149776 23208 126568 124141 25277 98864 20732 78132 73814 67569 7595 13137 13931 6462 11788 4318 3961 11034 357 992 6245 1615 10173 8634 18815
is_linear=0
shrinkage=0.0735879


Tree=14
num_leaves=26
num_cat=0
split_feature=42 27 36 40 24 26 16 27 13 10 10 0 0 3 10 13 13 13 8 13 8 22 13 14 26
split_gain=933.651 377.216 342.737 356.282 356.504 279.722 246.821 216.169 204.871 202.576 197.599 199.647 341.543 265.085 260.554 175.058 172.6 170.067 164.542 160.573 160.151 118.8 132.017 114.019 112.332
threshold=1.0000000180025095e-35 2.433333333333334 1.0000000180025095e-35 1.0000000180025095e-35 3.19096595274205 2.00106985186626 0.14416652732771312 234.8666666666667 0.72794342114102195 0.8571381701672659 1.00000000000001 325146.00000000006 99950.000000000015 21.500000000000004 0.99963569641811756 0.5356600411306115 0.89658687422425898 0.56368665170433208 1.9451805485666886 0.43051336686502778 5.4884583440730887 2.4733120487352367 0.65550633091862498 0.97326133036724538 6.5000432002764823
decision_type=2 2 2 2 2 2 2 2 2 2 2 2 2 2 2 2 2 2 2 2 2 2 2 2 2
left_child=2 -2 3 10 6 8 -5 19 -4 -3 11 12 13 -1 -14 -13 -11 -8 -10 -6 -21 22 23 -7 -24
right_child=1 9 5 4 7 21 17 -9 18 16 -12 15 14 -15 -16 -17 -18 -19 -20 20 -22 -23 24 -25 -26
leaf_value=0.021096736657578941 -0.050429857259335187 -0.033750640526722595 -0.048598271623998393 -0.048459655142894693 0.059440608144717286 0.023990018198168161 -0.036733172209309696 -0.039476821275843309 0.028852834736001233 0.0090208437486912034 0.11314345621115696 0.086081764816014719 -0.070604346465971288 0.054164514171272528 0.02519442598699986 0.03047866314361181 -0.042343905403500547 0.027260909992651079 -0.040341424295542577 0.0058430339359710438 0.045624068124862013 0.029809913138323946 -0.023207996432789837 -0.034274760484881067 0.0093472551582875971
leaf_weight=21851.289756760001 1272.0385969728231 1035.1791529804468 883.38777987658978 971.0008797198534 522.44042694568634 1790.8869823366404 352.57690139114857 341.9152535200119 496.37279315292835 3154.3532556295395 133.85726852715015 490.58259834349155 376.96014465391636 1403.8295007944107 256.67624926567078 853.66453696787357 398.59927615523338 618.64426735043526 297.24861776828766 2364.6874820291996 718.16875545680523 1274.8743656724691 1214.867680773139 200.44562667608261 1079.9604942947626
leaf_count=69630 6105 4317 3785 4145 1554 5808 1367 1380 1667 11163 357 1355 1413 4380 795 2629 1623 2000 1309 8067 2219 3972 4413 726 3597
internal_value=0.0123913 -0.0149589 0.0165588 0.0199008 0.00356546 0.00210632 -0.0222124 0.0162874 -0.0242106 -0.00509191 0.0236875 0.0232069 0.0216432 0.0230994 -0.0315618 0.0508832 0.00321601 0.00387511 0.00274736 0.0216176 0.015159 0.0100695 0.00416293 0.0180497 -0.00782209
internal_weight=44354.5 5860.17 38494.3 31256.3 5889.43 7238.04 1942.22 3947.21 1677.01 4588.13 25366.9 25233 23888.8 23255.1 633.636 1344.25 3552.95 971.221 793.621 3605.3 3082.86 5561.04 4286.16 1991.33 2294.83
internal_count=149776 23208 126568 101291 20732 25277 7512 13220 6761 17103 80559 80202 76218 74010 2208 3984 12786 3367 2976 11840 10286 18516 14544 6534 8010
is_linear=0
shrinkage=0.0735879


Tree=15
num_leaves=24
num_cat=0
split_feature=35 25 41 39 38 23 9 8 37 17 37 23 9 3 5 2 5 5 12 19 24 12 9
split_gain=762.121 407.218 357.856 329.969 401.916 391.94 203.137 188.161 163.621 152.228 133.893 115.566 98.0592 92.2407 153.49 70.4912 57.6933 81.7126 63.2114 49.1007 30.6137 29.6562 6.34153
threshold=1.0000000180025095e-35 1.0000000180025095e-35 1.0000000180025095e-35 1.0000000180025095e-35 1.0000000180025095e-35 0.92952898917902482 0.77667669428989849 57.303002394547804 1.0000000180025095e-35 0.021517435897435853 1.0000000180025095e-35 0.9857613139198026 0.91703400352468434 21.500000000000004 0.15608570635237667 74.500000000000014 0.65944115549644355 0.16913088836272919 0.15319489155733623 0.00085916941015085015 0.12423551153053342 0.48669861343794668 0.058650667601472209
decision_type=2 2 2 2 2 2 2 2 2 2 2 2 2 2 2 2 2 2 2 2 2 2 2
left_child=1 2 3 4 5 9 7 -6 -3 -1 -7 16 13 14 -5 -15 17 19 -19 -4 22 -8 -13
right_child=-2 8 11 12 6 10 21 -9 -10 -11 -12 20 -14 15 -16 -17 -18 18 -20 -21 -22 -23 -24
leaf_value=0.00051343783902182917 -0.09153592918538285 -0.086606942337376133 0.035812524859061459 0.023208202550661035 0.023745817575214555 -0.053582101494499303 -0.11246521769150473 -0.030208609332207214 0.091394271700262847 0.024354411985393322 0.066433302535522654 -0.086433471417862132 -0.12301395923863927 0.029619228978381176 -0.042076105000821741 0.091300785424964101 0.099176345114829714 0.041412366215037584 -0.040474953449102881 0.023704259521206666 0.011690622527906444 -0.028619570484346282 -0.032732596615935847
leaf_weight=16868.874811261892 384.99053761363029 294.45168717205524 3209.5720353424549 7410.9083894640207 7525.3827939331532 869.09697677195072 64.519068449735641 364.67439395189285 30.080849438905716 1588.3241177648306 52.326796263456345 54.154294401407242 24.514776676893234 239.92822898924351 198.68156088888645 186.08788806200027 62.842542961239815 72.670839533209801 164.1117849946022 4494.2879356443882 31.974681034684181 44.166707307100296 29.351910755038261
leaf_count=59355 2427 2255 9776 23172 23508 4436 250 1325 84 5357 153 240 100 735 713 535 184 224 601 13979 109 150 108
internal_value=0.0115007 0.0124081 0.0130229 0.00982362 0.00596333 0.000227177 0.0198416 0.021233 -0.0696428 0.00257319 -0.046603 0.0269688 0.022917 0.0233811 0.0214839 0.0569163 0.028035 0.0274529 -0.0147095 0.0287683 -0.0456245 -0.0797799 -0.069361
internal_weight=44266 43881 43556.5 35437.5 27377.4 19378.6 7998.74 7890.06 324.533 18457.2 921.424 8118.97 8060.12 8035.61 7609.59 426.016 8003.49 7940.64 236.783 7703.86 115.481 108.686 83.5062
internal_count=149776 147349 145010 119789 94534 69301 25233 24833 2339 64712 4589 25221 25255 25155 23885 1270 24764 24580 825 23755 457 400 348
is_linear=0
shrinkage=0.0735879


Tree=16
num_leaves=26
num_cat=0
split_feature=42 18 35 36 18 5 18 15 2 6 15 11 15 17 15 23 23 18 22 24 18 11 22 0 10
split_gain=727.543 1262.15 738.32 292.167 972.865 241.709 235.816 212.389 372.284 334.313 252.596 194.272 181.434 173.143 152.395 141.608 137.919 129.989 294.167 140.879 113.778 106.993 138.611 117.051 98.6314
threshold=1.0000000180025095e-35 0.025501677852348952 1.0000000180025095e-35 1.0000000180025095e-35 0.034029516612647207 0.65944115549644355 0.98064780521262007 0.0083611632347885528 94.500000000000014 8.9126319621405194 0.013593365702660001 0.24706785031488046 0.030890398279690551 1.0000000180025095e-35 0.0041227344803206013 0.98453305183459527 0.48707754519505236 0.98566777769165193 2.990837698620997 5.6438220158234316 0.063550000000000009 0.033044330600273106 0.5621014816207569 42296.500000000007 0.99914960406368725
decision_type=2 2 2 2 2 2 2 2 2 2 2 2 2 2 2 2 2 2 2 2 2 2 2 2 2
left_child=2 -2 3 5 13 7 12 8 11 -9 -11 -1 21 14 -5 -10 -15 19 -19 20 -6 22 -3 -24 -14
right_child=1 6 -4 4 17 -7 -8 9 15 10 -12 -13 24 16 -16 -17 -18 18 -20 -21 -22 -23 23 -25 -26
leaf_value=0.021969053836210457 -0.0718418711108436 0.018205500163362774 -0.089913876902684375 -0.011191184360907836 -0.0061961484190034598 0.08850807990057237 -0.038301434566452713 0.066498291618672503 -0.0068917892716567185 0.036729538313748249 0.015894582027564951 -0.038448484513095876 -0.05754532109259989 0.041509747463962209 -0.070628747240989831 -0.079569620090009716 -0.062428436218826017 -0.040035600161343492 0.029872323114449009 -0.064317866854377279 0.030063389763510289 0.029861963018867559 -0.066797540404079536 0.031464856432488253 0.003744448065250611
leaf_weight=6554.7090606838465 1495.914331831038 785.37662029266357 363.88625547289848 305.45172046124935 531.40378701686859 265.60240386426449 550.6356537938118 887.68874289095402 3388.0042250901461 3993.3655960708857 15257.798247471452 299.7084377259016 267.9189121723175 191.35709863901138 1087.8048661500216 152.28129518032074 107.95846390724182 620.2225036919117 686.07581578195095 96.19806307554245 3587.4725745618343 2084.7666427642107 232.64865510165691 89.086599409580231 293.91717049479485
leaf_count=20919 8328 2550 2427 1165 1842 821 2143 2583 11569 12304 48893 1087 1139 587 5231 688 469 2240 2097 361 11285 6713 991 283 1061
internal_value=0.0106728 -0.013605 0.0143461 0.0153481 0.00199457 0.018471 0.00659975 0.0178568 0.00928934 0.0222715 0.0202243 0.0193054 0.0132264 -0.0467902 -0.0577057 -0.0100606 0.00351927 0.0169767 -0.00320501 0.0232668 0.0253489 0.0200402 0.00140961 -0.0391237 -0.0252168
internal_weight=44177.3 5800.26 38377 38013.1 7213.94 30799.2 4304.35 30533.6 10394.7 20138.9 19251.2 6854.42 3753.71 1692.57 1393.26 3540.29 299.316 5521.37 1306.3 4215.07 4118.88 3191.88 1107.11 321.735 561.836
internal_count=149776 23208 126568 124141 25277 98864 14880 98043 34263 63780 61197 22006 12737 7452 6396 12257 1056 17825 4337 13488 13127 10537 3824 1274 2200
is_linear=0
shrinkage=0.0735879


Tree=17
num_leaves=26
num_cat=0
split_feature=35 18 41 37 25 9 15 15 9 15 6 40 6 40 34 7 23 15 6 23 15 10 31 41 10
split_gain=619.141 438.421 388.526 424.565 270.736 223.209 184.225 192.854 221.737 185.056 178.137 161.154 144.08 211.348 158.585 139.528 136.956 106.903 122.638 100.387 93.3214 90.2581 70.1046 56.5088 55.8834
threshold=1.0000000180025095e-35 0.038021739130434752 1.0000000180025095e-35 1.0000000180025095e-35 1.0000000180025095e-35 0.91703400352468434 0.0083611632347885528 0.013756371128521351 0.087389516926009159 0.010036988748396701 4936.8375000000005 1.0000000180025095e-35 78.89444444444446 1.0000000180025095e-35 0.0061497741518025005 10.500000000000002 0.98657835374042513 0.06718368061635456 19.968085106382983 0.98453305183459527 0.070769668908132868 0.90460315190722629 3.9160721836814879e-18 1.0000000180025095e-35 1.0000000000000002
decision_type=2 2 2 2 2 2 2 2 2 2 2 2 2 2 2 2 2 2 2 2 2 2 2 2 2
left_child=1 2 3 4 10 6 12 8 21 -10 16 -12 -3 14 -14 -15 -1 18 -9 22 -19 -8 24 -7 -4
right_child=-2 5 19 -5 -6 23 7 17 9 -11 11 -13 13 15 -16 -17 -18 20 -20 -21 -22 -23 -24 -25 -26
leaf_value=-0.010460944005559157 -0.08845381018860303 -0.0035846242953063889 0.029326243029245198 0.067149175585685533 -0.08456663017915296 -0.098198484656637233 0.029543344895137033 0.037239908821273586 0.035974448212283787 -0.0023113079576074589 0.029301235658390587 -0.083277094770245946 0.0084592903583890662 -0.040327542442049287 0.033475339274137504 0.017621422718372325 -0.060904355178811431 -0.052448803734417009 0.015336270884777141 -0.036065032118482464 0.0041984428875481566 0.059413944074541508 -0.0089752713238046358 0.010373660635414051 0.076604761808908267
leaf_weight=7795.2191004902124 343.44027609378099 3850.5821632444859 1953.1046275794506 392.67159639298916 263.13705445826054 117.09260551631451 897.7810834646225 1571.3818885236979 1423.3677102029324 1302.2222162038088 911.92504239082336 73.88930581510067 3055.12613029778 578.81155356764793 2522.6538475006819 363.81827874481678 304.34097437560558 174.47893217206001 12453.58646325767 136.11247584223747 1602.4774390757084 1517.3361205458641 236.7756665199995 30.25192765891552 150.53677150607109
leaf_count=29333 2427 13166 6013 1170 2255 500 2783 4831 4406 4294 2980 367 9839 2427 7716 1169 1525 645 40123 541 5453 4451 806 100 456
internal_value=0.00991487 0.0106918 -0.00112745 -0.00775582 -0.0109182 0.0152865 0.0157156 0.0196922 0.0321008 0.0176276 -0.00876854 0.02071 0.00767112 0.0143411 0.0198002 -0.0178028 -0.012375 0.0156459 0.0178011 0.024884 -0.00127993 0.0483723 0.0284928 -0.0748924 0.0327813
internal_weight=44022.1 43678.7 12217.7 9741.18 9348.51 31461 31313.6 20942.6 5140.71 2725.59 9085.37 985.814 10371 6520.41 5577.78 942.63 8099.56 15801.9 14025 2476.53 1776.96 2415.12 2340.42 147.345 2103.64
internal_count=149776 147349 45446 37630 36460 101903 101303 66986 15934 8700 34205 3347 34317 21151 17555 3596 30858 51052 44954 7816 6098 7234 7275 600 6469
is_linear=0
shrinkage=0.0735879


Tree=18
num_leaves=26
num_cat=0
split_feature=35 18 36 25 10 13 27 9 28 15 4 15 15 9 15 7 6 40 30 27 18 22 8 15 5
split_gain=559.516 376.469 620.663 267.969 197.384 329.87 255.216 194.324 175.661 167.215 164.418 158.184 166.672 201.038 205.973 183.545 123.914 181.672 310.702 125.123 115.93 118.713 103.831 121.066 82.5458
threshold=1.0000000180025095e-35 0.038021739130434752 1.0000000180025095e-35 1.0000000180025095e-35 1.0000000000000002 0.79399939669804742 1.0000000180025095e-35 0.91703400352468434 0.7696153846153847 0.0041227344803206013 0.22207009857612262 0.0083611632347885528 0.013756371128521351 0.18911707451732904 0.008660367790866352 9.5000000000000018 78.89444444444446 1.0000000180025095e-35 0.0072810216617354507 17.633333333333336 0.0070031847133757508 1.6240080692802648 599.17746228926364 0.06718368061635456 0.094941534548463255
decision_type=2 2 2 2 2 2 2 2 2 2 2 2 2 2 2 2 2 2 2 2 2 2 2 2 2
left_child=1 2 3 4 5 6 -1 11 -6 -4 -7 16 13 15 -15 -13 -3 19 -19 -18 -11 -22 23 -14 -5
right_child=-2 7 9 24 8 10 -8 -9 -10 20 -12 12 22 14 -16 -17 17 18 -20 -21 21 -23 -24 -25 -26
leaf_value=-0.041122649175336791 -0.087134901245791346 -0.0033219668007696758 0.0015379060206823286 -0.083160641796083776 0.055689685115981623 -0.023189029596362574 0.019787392531485006 -0.070835176776607417 -0.0408674082273109 -0.076638252700765616 0.011446367884746468 0.031119685498283051 0.016256121061804751 0.063546270820045728 -0.004140750625395445 0.073171639437805733 -0.0037792901270969413 0.015688420003608476 -0.072008713552150619 0.023821287839904753 -0.057972480729617845 0.001445458989276347 0.0852840469204455 -0.0043584300721960781 0.024380676949553631
leaf_weight=398.9386033564806 323.7226364761591 3849.3262175619602 375.92983776330948 233.22509837150574 718.83988304436207 2513.010869666934 5348.1209221631289 144.31891620159149 117.06007444858551 637.34332340955734 1046.7503524422646 2797.7655126154423 13963.29362295568 297.70195662975311 1319.4741167873144 713.9272251278162 1098.7661501467228 589.16021725535393 346.32044747471809 4476.2620865553617 434.795744612813 304.98611114919186 112.23500868678093 1721.8883090615273 43.89130461961031
leaf_count=1831 2427 13166 1381 2134 2371 9156 17882 600 461 3240 3573 8660 44785 884 4356 2034 3640 1984 1612 13915 1890 1322 321 5946 205
internal_value=0.00920266 0.00992136 -0.00105445 0.00574856 0.00771243 0.00461777 0.0155331 0.014177 0.0419881 -0.0415754 -0.0129624 0.014574 0.0182602 0.0298138 0.00822754 0.0397118 0.00711354 0.0133065 -0.0166182 0.0183547 -0.0534531 -0.0332747 0.0144997 0.0139835 -0.0655869
internal_weight=43927.1 43603.3 12172.9 10419.8 10142.7 9306.82 5747.06 31430.4 835.9 1753.06 3559.76 31286.1 20926.3 5128.87 1617.18 3511.69 10359.8 6510.51 935.481 5575.03 1377.13 739.782 15797.4 15685.2 277.116
internal_count=149776 147349 45446 37613 35274 32442 19713 101903 2832 7833 12729 101303 66986 15934 5240 10694 34317 21151 3596 17555 6452 3212 51052 50731 2339
is_linear=0
shrinkage=0.0735879


Tree=19
num_leaves=26
num_cat=0
split_feature=35 18 39 41 37 9 25 15 11 13 11 9 15 13 15 13 11 14 13 0 24 13 23 3 8
split_gain=506.486 323.107 355.13 549.879 484.125 169.237 162.486 135.819 174.744 220.362 197.162 158.447 130.387 100.679 105.18 96.6858 222.003 176.581 106.951 92.8929 94.7867 106.928 83.2229 75.5661 59.9073
threshold=1.0000000180025095e-35 0.038021739130434752 1.0000000180025095e-35 1.0000000180025095e-35 1.0000000180025095e-35 0.91703400352468434 1.0000000180025095e-35 0.0083611632347885528 0.022182352359138003 0.60424367395881651 0.019724949940909901 0.22058288314210128 0.0041647065996553512 0.19425685055370209 0.010637290550601902 0.79399939669804742 0.038587378508845506 0.84897345598832541 0.68460395425567311 2320.0000000000005 5.6438220158234316 0.58107902307541204 0.9857613139198026 14.500000000000002 5.4884583440730887
decision_type=2 2 2 2 2 2 2 2 2 2 2 2 2 2 2 2 2 2 2 2 2 2 2 2 2
left_child=1 2 3 4 6 7 12 19 9 11 -11 -9 -1 -10 -15 18 -17 -18 24 -3 21 -21 -5 -19 -4
right_child=-2 5 15 22 -6 -7 -8 8 13 10 -12 -13 -14 14 -16 16 17 23 -20 20 -22 -23 -24 -25 -26
leaf_value=0.00028287107627082746 -0.085939567197964847 -0.0038317144837449846 0.016718067426138405 0.02559460193694206 0.062174492743674814 -0.066948253240011621 -0.082797044888917704 -0.047467889910629592 0.070054037673161748 0.049496767724591335 -0.0046386759050911835 0.0017677818238735472 -0.025318546137410546 0.031880309126541162 0.016489253978676913 0.069870657701038119 -0.066188881880702904 -0.0034193575345810058 0.067911617656174483 0.023211418399978541 -0.015580468163866627 0.0042938147544785412 -0.039142797984666383 0.063791224263359314 0.072883870825920585
leaf_weight=1342.5415649414062 304.78196057677269 3182.6507505476475 918.82961596548557 2351.7818792462349 388.14064414799213 141.56753821671009 233.2453873232007 646.27909643948078 213.96486707031727 670.7792325168848 787.52998146414757 770.11055389046669 5224.7171851024032 2900.4764007776976 14921.90761423111 230.04337497055531 232.16981206834316 432.53605468571186 414.60152538120747 3309.4988282322884 643.79660727083683 3210.4476310908794 110.89595721662045 113.46488207578659 118.58473844826221
leaf_count=4915 2427 10888 2966 7359 1170 600 2255 2342 606 2067 2730 2521 21464 8983 47737 710 870 1424 1192 10468 2192 10769 457 326 338
internal_value=0.00854254 0.00920784 -0.000991016 -0.0073649 -0.0176574 0.0131466 -0.022236 0.0135142 0.0169308 2.86827e-05 0.0201597 -0.0205924 -0.0200621 0.0196165 0.0190025 0.0239524 0.00626509 -0.0123468 0.0361303 0.00659436 0.0112473 0.0139193 0.0226184 0.0102751 0.0232837
internal_weight=43815.3 43510.6 12111.6 9651.32 7188.64 31399 6800.5 31257.4 20911 2874.7 1458.31 1416.39 6567.26 18036.3 17822.4 2460.23 1008.21 778.171 1452.02 10346.4 7163.74 6519.95 2462.68 546.001 1037.41
internal_count=149776 147349 45446 37620 29804 101903 28634 101303 66986 9660 4797 4863 26379 57326 56720 7826 3330 2620 4496 34317 23429 21237 7816 1750 3304
is_linear=0
shrinkage=0.0735879


Tree=20
num_leaves=26
num_cat=0
split_feature=35 18 36 25 0 27 0 8 28 17 1 18 15 13 14 11 15 15 15 38 1 11 17 20 18
split_gain=459.216 276.934 507.978 218.497 197.608 275.532 219.94 191.919 177.183 168.629 164.498 147.292 164.333 111.171 110.331 108.369 180.712 166.183 159.712 151.442 266.027 133.305 158.226 110.5 103.719
threshold=1.0000000180025095e-35 0.038021739130434752 1.0000000180025095e-35 1.0000000180025095e-35 49409.500000000007 1.0000000180025095e-35 3761.5000000000005 12.429731297119661 0.94466316710411213 7.941964498593347e-05 24.500000000000004 0.0080045766590389009 0.015019974226443002 0.92258313341177689 0.97326133036724538 0.030772443521266405 0.031234946134005705 0.027122408205246255 0.019022645691969552 1.0000000180025095e-35 98.500000000000014 0.051965556140905804 0.00013951725079930003 2.2488788461931382 0.98064780521262007
decision_type=2 2 2 2 2 2 2 2 2 2 2 2 2 2 2 2 2 2 2 2 2 2 2 2 2
left_child=1 2 3 4 5 8 -7 10 -1 11 -6 -4 -13 -11 15 16 17 18 -3 23 -21 22 -17 -18 -19
right_child=-2 14 9 -5 7 6 -8 -9 -10 13 -12 12 -14 -15 -16 21 19 24 -20 20 -22 -23 -24 -25 -26
leaf_value=-0.054146660337125924 -0.084852844304105363 0.015414534890399928 -0.073763088722033632 -0.062899980500518884 0.031058718098455985 0.013065542131389437 -0.019165062625333344 0.05302539860328194 0.023558178606935241 0.061977287632997008 -0.02282249651898844 0.0076953438369415147 -0.061648263084805484 -0.027736606531784006 0.00078414891940002457 0.032486944753167893 0.0082105528880549849 0.065990591364463322 -0.014110526707721775 0.025412916195693979 -0.10811047524724926 0.013765977382913519 -0.031368783222248411 -0.033522317970719938 -0.041752100317339107
leaf_weight=703.69871052354574 286.64936252683401 5190.8418431580067 673.93029487878084 248.49305029213428 721.59029212594032 5610.9432848095894 1437.9896461963654 885.17331758141518 202.21498636901379 133.37032754719257 531.25132969021797 378.73681947588921 355.79335726797581 168.02847355604172 4030.4858032613993 3812.6663916110992 1277.7476636767387 440.47340159118176 1221.4181885123253 128.97743977606297 209.55882960557938 14319.731100335717 219.99310432374477 468.96583232283592 52.579042240977287
leaf_count=3191 2427 16700 3564 2339 2346 19093 5122 2924 730 404 1868 1526 1664 675 13695 11772 4186 1296 4171 399 900 46032 769 1797 186
internal_value=0.00793142 0.00854738 -0.000922907 0.00520772 0.00689952 0.00154137 0.00646919 0.0267652 -0.0366363 -0.0380887 0.00809158 -0.0487994 -0.0256903 0.0114667 0.0121899 0.0138657 0.00721785 0.0129613 0.00976718 -0.0117298 -0.056799 0.0171142 0.0289662 -0.00290859 0.0541962
internal_weight=43711.3 43424.7 12051.2 10341.4 10092.9 7954.85 7048.93 2138.01 905.914 1709.86 1252.84 1408.46 734.53 301.399 31373.4 27343 8990.56 6905.31 6412.26 2085.25 338.536 18352.4 4032.66 1746.71 493.052
internal_count=149776 147349 45446 37613 35274 28136 24215 7138 3921 7833 4214 6754 3190 1079 101903 88208 29635 22353 20871 7282 1299 58573 12541 5983 1482
is_linear=0
shrinkage=0.0735879


Tree=21
num_leaves=26
num_cat=0
split_feature=42 35 27 36 5 16 5 8 26 13 10 10 25 8 22 17 13 13 8 16 34 5 17 30 23
split_gain=581.964 448.175 253.31 186.827 193.954 167.891 208.66 230.46 160.814 161.734 154.914 150.542 110.157 95.4347 93.7648 143.606 159.861 92.1764 91.9568 69.5056 67.8983 62.9147 67.9508 61.2257 60.4434
threshold=1.0000000180025095e-35 1.0000000180025095e-35 4.0333333333333341 1.0000000180025095e-35 0.65944115549644355 0.49750069384417778 0.15844736842105264 54.579217812166668 2.00106985186626 0.72794342114102195 1.00000000000001 0.6804827826487615 1.0000000180025095e-35 1.9451805485666886 1.4729853954598171 0.0010065342923715503 0.67169433831425451 0.89658687422425898 1.1846480342822794 0.016232979120926704 0.12266363636363636 1.6399536082313279e-05 0.97912924552761227 0.070261397902370112 0.49338781688804556
decision_type=2 2 2 2 2 2 2 2 2 2 2 2 2 2 2 2 2 2 2 2 2 2 2 2 2
left_child=1 3 18 4 5 6 10 -8 9 -5 -1 20 17 -11 15 16 -10 -13 19 -2 -4 -7 -23 -20 -16
right_child=2 -3 11 8 -6 21 7 -9 14 13 -12 12 -14 -15 24 -17 -18 -19 23 -21 -22 22 -24 -25 -26
leaf_value=0.013307103182256183 0.041712779271252887 -0.083861906095141575 -0.0050690954624132041 -0.042660603571208211 0.080194628849926244 0.030537486109303395 -0.036802309612850546 0.062495010923926161 0.0098947455320259892 0.023663723279272623 0.093194525906893866 0.0068776933207888901 -0.08063086476751638 -0.030599030299672529 0.025601215373771111 0.055367139679896246 -0.022621407881097757 -0.031822957101449618 -0.05900416940081861 -0.028291491709077705 -0.058014961371401788 0.094482991842013461 -0.029893164052824626 0.047451372064023542 -0.0072818033906935104
leaf_weight=28668.59428319335 87.67304951697588 269.34169023483992 209.82405346632004 824.68919687718153 237.53155572712421 309.62233334779739 808.4087475836277 149.14369064569473 1834.4487005919218 492.30406668782234 132.68259993195534 3099.7600859701633 88.080991253256798 271.69087997823954 1600.7076245546341 231.71268028020859 1474.5333113074303 372.72294940054417 867.3248647376895 552.02079854160547 381.46239884197712 222.60102154314518 24.655801519751549 28.696735590696335 365.12860301136971
leaf_count=92595 305 2427 759 3785 821 947 2934 474 6106 1667 394 10643 932 1309 5013 682 5415 1493 4910 2274 1797 608 91 95 1300
internal_value=0.00736105 0.0106558 -0.0145782 0.011336 0.0138343 0.0133094 0.0125537 -0.0211791 0.000556842 -0.0200455 0.0136804 -0.00509179 0.00057709 0.00417066 0.00652804 -0.000586092 -0.00454975 0.00268046 -0.0401273 -0.0184622 -0.0394805 0.0534241 0.0814738 -0.0554268 0.0194174
internal_weight=43605.4 37917.8 5687.57 37648.5 30553.2 30315.7 29758.8 957.552 7095.22 1588.68 28801.3 4151.85 3560.56 763.995 5506.53 3540.69 3308.98 3472.48 1535.72 639.694 591.286 556.879 247.257 896.022 1965.84
internal_count=149776 126568 23208 124141 98864 98043 96397 3408 25277 6761 92989 15624 13068 2976 18516 12203 11521 12136 7584 2579 2556 1646 699 5005 6313
is_linear=0
shrinkage=0.0735879


Tree=22
num_leaves=26
num_cat=0
split_feature=42 18 35 18 36 18 3 16 6 12 12 23 3 12 10 12 16 18 18 33 0 24 24 26 13
split_gain=502.146 921.484 405.853 200.421 160.507 590.002 163.279 245.878 399.399 161.533 224.199 158.696 156.36 156.158 137.515 132.186 125.906 118.951 144.5 252.979 136.155 124.402 115.966 112.406 107.724
threshold=1.0000000180025095e-35 0.027505598208573252 1.0000000180025095e-35 0.98064780521262007 1.0000000180025095e-35 0.010009840758633001 21.500000000000004 0.021265416088164051 8.9126319621405194 0.12672965053930527 0.17941783921635987 0.98453305183459527 11.500000000000002 0.32690279954182705 0.63864442907533736 0.053205726750875204 0.012292334430906353 0.063550000000000009 0.98566777769165193 3.8500000000000007e-05 3539.5000000000005 4.0855299104842899 5.6438220158234316 53.594237202612668 0.89391246275674829
decision_type=2 2 2 2 2 2 2 2 2 2 2 2 2 2 2 2 2 2 2 2 2 2 2 2 2
left_child=2 23 4 14 6 -6 7 13 11 15 -11 -9 -10 -1 -3 -8 -12 20 22 -20 21 -7 -19 -2 -16
right_child=1 3 -4 -5 5 17 9 8 12 10 16 -13 -14 -15 24 -17 -18 18 19 -21 -22 -23 -24 -25 -26
leaf_value=0.039066111993572579 -0.070320837004087353 -0.030341901691292968 -0.082955695046046787 -0.03796434277648629 -0.055615707215964115 -0.0057683005400728238 -0.086777278999658897 0.062755740833176879 0.013000639647665043 -0.071662171335433567 -0.063093707198072793 -0.078847976848465257 -0.013389394082469818 -0.019265399643419504 0.020280800770068035 0.079402481334487726 0.040428694045552299 0.023203576235515749 -0.044956964974078542 0.020661553455213581 0.026792039320796286 -0.063781730017124089 -0.058815964816340632 0.015058636974150309 -0.017714874079680726
leaf_weight=283.36522117257118 1329.5207509025931 409.42679388821125 252.86424491554499 547.10626563429832 886.40143789350986 538.44891901314259 26.532372951507568 1057.0577533096075 24375.578284680843 127.46349017322063 67.848117709159851 43.729882270097733 1274.0401647090912 1953.6238079667091 2805.5234727561474 480.21419854462147 826.17970614135265 3591.355881139636 557.26170027256012 738.64474159479141 344.82234808802605 324.87327010929585 94.835467934608459 86.054941549897194 467.85429601371288
leaf_count=904 8237 1683 2427 2143 4567 2174 98 3151 78369 472 253 212 4370 6945 8986 1495 2595 11285 2051 2286 1181 1372 361 350 1809
internal_value=0.00683455 -0.0136271 0.00989085 0.00353828 0.0105194 0.000512262 0.0128352 0.0115916 0.0135541 0.0363244 0.0192707 0.0569933 0.011684 -0.0118092 0.00974459 0.0704035 0.0324038 0.00857373 0.0136112 -0.00744021 -0.0120755 -0.0277733 0.0210526 -0.0650246 0.0148044
internal_weight=43490.6 5645.49 37845.1 4229.91 37592.3 7076.64 30515.6 28987.4 26750.4 1528.24 1021.49 1100.79 25649.6 2236.99 3682.8 506.747 894.028 6190.24 4982.1 1295.91 1208.14 863.322 3686.19 1415.58 3273.38
internal_count=149776 23208 126568 14621 124141 25277 98864 93951 86102 4913 3320 3363 82739 7849 12478 1593 2848 20710 15983 4337 4727 3546 11646 8587 10795
is_linear=0
shrinkage=0.0735879


Tree=23
num_leaves=26
num_cat=0
split_feature=42 18 35 40 24 16 10 10 10 16 16 16 13 6 13 16 6 18 13 13 1 10 13 13 13
split_gain=434.083 837.609 368.103 190.996 271.35 204.733 204.714 327.318 213.032 212.039 238.465 212.214 192.527 189.335 173.075 171.123 212.688 159.622 157.572 136.477 134.29 127.169 120.649 117.154 149.465
threshold=1.0000000180025095e-35 0.019450672571883054 1.0000000180025095e-35 1.0000000180025095e-35 3.19096595274205 0.14416652732771312 0.99978214688439249 0.99781848262382156 0.99807420537600133 0.13376068249543402 0.13867460268381679 0.026533127321416505 0.93422577527666684 37458.500000000007 0.50429456606888545 0.39186496644922836 24.540800963565196 0.98064780521262007 0.50438583166581286 0.56368665170433208 200.50000000000003 0.63864442907533736 0.89391246275674829 0.42200896548722638 0.88875044459752106
decision_type=2 2 2 2 2 2 2 2 2 2 2 2 2 2 2 2 2 2 2 2 2 2 2 2 2
left_child=2 -2 3 6 5 -5 7 9 -9 11 -11 -1 -10 23 15 16 -8 21 -16 -7 -20 -3 -23 -6 -25
right_child=1 17 -4 4 13 19 14 8 12 10 -12 -13 -14 -15 18 -17 -18 -19 20 -21 -22 22 -24 24 -26
leaf_value=-3.0719451868976761e-05 -0.068193270614943208 -0.030853758797946548 -0.082124608945278454 -0.048923017044761222 0.041469722452592096 -0.037584086652550662 -0.0076559066760245303 -0.083325429263602646 0.00067693422461630073 -0.061793791771299705 0.0039142331135121541 0.024275689812583559 -0.076615213739810256 -0.076758121774483309 0.087598631036020169 -0.010427053408523214 0.040195145013750558 -0.035539053061033263 0.020706628350280094 0.019745789893148111 0.053426509727197959 0.017495659728778354 -0.021396306006010113 -0.0017298174985302638 0.038302004974563722
leaf_weight=2680.0355533659458 1168.4609298631549 423.7796838581562 237.21306642889977 967.11156232655048 605.55721913278103 353.06504172086716 839.8034336566925 280.96539944410324 1037.3070995211601 310.72188344597816 7908.1318108662963 6976.5902703627944 208.91307671368122 135.17680579423904 216.73065233230591 1749.506215646863 1237.4233173727989 541.64820303022861 7427.5721732825041 618.4720506966114 755.67360146343708 2951.6414138674736 502.75610066950321 2570.0825927108526 626.80639854073524
leaf_count=9340 7697 1781 2427 4145 1840 1367 2783 1052 3434 1128 26286 22046 836 673 600 5827 3734 2143 23781 2000 2562 9581 2006 8760 1947
internal_value=0.00634907 -0.012781 0.00918548 0.00976702 -0.00239505 -0.0249515 0.0120313 0.00731934 -0.0253522 0.010119 0.00141174 0.0175144 -0.0121608 0.00867241 0.0194965 0.00647225 0.0207774 0.00183458 0.025412 -0.000934574 0.0237465 0.00709314 0.0117919 0.0117492 0.00607245
internal_weight=43331.1 5588.29 37742.9 37505.6 5876.27 1938.65 31629.4 19402.7 1527.19 17875.5 8218.85 9656.63 1246.22 3937.62 12226.7 3826.73 2077.23 4419.83 8399.98 971.537 8183.25 3878.18 3454.4 3802.45 3196.89
internal_count=149776 23208 126568 124141 20732 7512 103409 64122 5322 58800 27414 31386 4270 13220 39287 12344 6517 15511 26943 3367 26343 13368 11587 12547 10707
is_linear=0
shrinkage=0.0735879


Tree=24
num_leaves=26
num_cat=0
split_feature=42 18 35 15 40 30 0 36 18 15 8 8 8 6 24 14 29 26 29 8 18 18 22 2 30
split_gain=375.19 753.638 334.299 180.062 164.178 574.44 254.17 223.646 518.936 242.572 443.625 244.095 224.112 213.1 201.556 169.792 142.235 188.396 135.496 122.395 112.552 127.682 128.126 120.516 107.155
threshold=1.0000000180025095e-35 0.019450672571883054 1.0000000180025095e-35 0.013655901421081152 1.0000000180025095e-35 0.024054157984395003 2544.0000000000005 1.0000000180025095e-35 0.016519230769230755 0.06718368061635456 16.082686882933711 13.009577568401101 38.298730395817778 26970.633333333335 4.6622004056777069 0.51347123947133622 0.015288646502387352 1.3216738922290481 0.19789193462200258 1.0323844853476276 0.99351513671875014 0.06508362168396771 1.0823976808877769 94.500000000000014 0.11323676638646481
decision_type=2 2 2 2 2 2 2 2 2 2 2 2 2 2 2 2 2 2 2 2 2 2 2 2 2
left_child=2 -2 4 -3 7 13 14 9 -9 10 11 -1 -12 16 18 -11 19 -18 -7 -6 21 -5 -23 -24 -16
right_child=1 3 -4 20 5 6 -8 8 -10 15 12 -13 -14 -15 24 -17 17 -19 -20 -21 -22 22 23 -25 -26
leaf_value=0.01482236427886318 -0.065781119137160823 0.015889046848449193 -0.081360268749156014 -0.042656411611093577 -0.028484997659574685 -0.05973437804367427 -0.091494657788249112 -0.047183997784899824 0.0081302998488384879 0.054064640172801909 0.085452862618255618 -0.028668704876007037 0.031909040048705532 -0.071543121389322076 0.050521668772157705 -0.022133847022328883 -0.032664744693408243 0.037200027082691725 -0.011623068720578274 0.016373655124701691 -0.068156650828337842 0.018121827474554361 0.019719548403919766 -0.054510405636279693 -0.025774325168672323
leaf_weight=20350.423537418246 1123.8722115233541 2311.6574457138777 222.37683846801519 451.04932980239391 517.08877058327198 660.21438504755497 343.62764273583889 1085.6383638232946 5961.5401245355606 177.73882618546486 656.305917724967 721.40245924890041 1235.2881235033274 148.37619738280773 266.59496863186359 1394.7610724121332 231.19526201486588 1993.1585715562105 627.39763656258583 907.16399087011814 189.00263388454914 949.51228742301464 182.18203163146973 326.41792500019073 156.31002603471279
leaf_count=64403 7697 7630 2427 1854 1781 2750 1699 5528 19749 533 1875 2456 3866 745 811 4999 889 6104 2457 2908 819 3113 623 1472 588
internal_value=0.00589604 -0.0119844 0.00852758 0.0016923 0.0090656 -0.00223547 -0.0336057 0.011164 -0.000369876 0.0144828 0.0164005 0.0133263 0.0505663 0.0146963 -0.0218881 -0.0134255 0.0182447 0.0298709 -0.0364086 0 -0.0138776 -0.00842517 0.00206154 -0.0276269 0.021968
internal_weight=43190.3 5533.69 37656.6 4409.82 37434.2 5851.13 2054.14 31583.1 7047.18 24535.9 22963.4 21071.8 1891.59 3796.98 1710.52 1572.5 3648.61 2224.35 1287.61 1424.25 2098.16 1909.16 1458.11 508.6 422.905
internal_count=149776 23208 126568 15511 124141 20732 8305 103409 25277 78132 72600 66859 5741 12427 6606 5532 11682 6993 5207 4689 7881 7062 5208 2095 1399
is_linear=0
shrinkage=0.0735879


Tree=25
num_leaves=26
num_cat=0
split_feature=42 18 35 15 23 40 30 36 18 15 31 5 18 29 15 7 18 17 18 18 23 18 26 23 30
split_gain=324.47 677.921 304.041 155.029 147.662 151.311 502.267 197.569 434.666 217.806 191.338 188.487 161.975 158.616 144.103 141.585 115.003 108.479 99.568 111.064 140.225 95.439 93.7245 86.4243 86.2733
threshold=1.0000000180025095e-35 0.019450672571883054 1.0000000180025095e-35 0.013655901421081152 0.98605238366765924 1.0000000180025095e-35 0.023612263559033401 1.0000000180025095e-35 0.010009840758633001 0.090077068524666862 2.504416926910977e-35 0.65944115549644355 0.98671044668458407 0.0087695034056354017 0.0063212667730792515 9.5000000000000018 0.98350682637815579 1.0000000180025095e-35 0.99351513671875014 0.06508362168396771 0.27930026455026463 0.061519230769230757 362.88107692398711 0.17396368730429052 0.0011023132709815002
decision_type=2 2 2 2 2 2 2 2 2 2 2 2 2 2 2 2 2 2 2 2 2 2 2 2 2
left_child=2 22 4 23 5 7 13 9 17 11 12 -1 -8 24 -15 -12 -11 -9 19 -5 -21 -10 -2 -3 -7
right_child=1 3 -4 18 -6 6 10 8 21 16 15 -13 -14 14 -16 -17 -18 -19 -20 20 -22 -23 -24 -25 -26
leaf_value=0.014748136925461472 -0.066275014640930427 0.0065032511481482634 -0.080655312815801503 -0.039994980941546514 -0.036042185486219611 0.0078904771654431383 -0.06259810213892672 -0.065270097490540913 -0.012180017276576973 -0.012186098682529706 -0.02303870852269942 0.089112027117740522 0.009070146590062245 -0.017234474676853094 0.029965408592417402 0.044399579729246935 -0.092023749746763195 0 -0.064632409956987644 0.012157712580342914 -0.049419197044299874 0.011108243078334638 0.10457710097493766 0.039731060270991637 -0.035751721571326167
leaf_weight=23207.338441446424 1064.0670838952065 1747.6892427802086 208.33848891407251 445.86619774997234 398.77692890167236 549.85158015787601 992.97008994221687 626.10982498526573 1171.7624239325523 634.22226874530315 616.10378012061119 186.882204413414 201.95915326476097 406.87902550399303 2365.7451637834311 231.50682277977467 117.10709407925606 177.63614112138748 184.8038038611412 1214.0884116888046 239.58302345871925 4998.6178069412708 16.988331958651543 566.55201905965805 437.02577179670334
leaf_count=73375 7634 5846 2427 1854 1808 1781 4576 3533 4601 2225 2287 730 777 1561 7323 714 459 657 819 4077 1131 16070 63 1784 1664
internal_value=0.00547858 -0.0112373 0.00792328 0.00156137 0.00842181 0.00890612 -0.00198213 0.010941 9.536e-06 0.0140922 -0.0313786 0.0153486 -0.0503599 0.0139492 0.0229848 -0.00444222 -0.0248312 -0.0508705 -0.0129576 -0.00785088 0.00190562 0.00666149 -0.0634501 0.0147027 -0.0112845
internal_weight=43008.5 5479.64 37528.8 4398.58 37320.5 36921.7 5802.04 31119.7 6974.13 24145.6 2042.54 23394.2 1194.93 3759.5 2772.62 847.611 751.329 803.746 2084.34 1899.54 1453.67 6170.38 1081.06 2314.24 986.877
internal_count=149776 23208 126568 15511 124141 122333 20683 101650 24861 76789 8354 74105 5353 12329 8884 3001 2684 4190 7881 7062 5208 20671 7697 7630 3445
is_linear=0
shrinkage=0.0735879


Tree=26
num_leaves=26
num_cat=0
split_feature=42 18 35 40 30 6 18 6 36 18 14 14 9 30 0 18 18 0 29 13 24 18 0 24 8
split_gain=280.536 616.462 276.848 121.743 455.636 185.43 176.459 167.817 160.086 393.74 197.246 457.843 228.876 135.758 226.165 112.217 117.621 153.485 112.051 105.043 101.136 95.4516 86.0522 81.8516 79.1511
threshold=1.0000000180025095e-35 0.01217551231421495 1.0000000180025095e-35 1.0000000180025095e-35 0.051626581439388759 22808.886363636368 0.99602371541501988 36702.000000000007 1.0000000180025095e-35 0.010009840758633001 0.7802249407098174 0.76452634190889779 0.34726474537205726 0.0072810216617354507 2592.0000000000005 0.98064780521262007 0.057542912513842713 3146.5000000000005 0.015288646502387352 0.53108957324397832 4.0855299104842899 0.061519230769230757 3451.0000000000005 5.6438220158234316 11.540644035391937
decision_type=2 2 2 2 2 2 2 2 2 2 2 2 2 2 2 2 2 2 2 2 2 2 2 2 2
left_child=2 -2 3 7 5 13 -6 8 10 22 11 -1 -12 18 -15 16 17 20 -5 -9 -3 -11 -10 -18 -21
right_child=1 15 -4 4 6 -7 -8 19 9 21 12 -13 -14 14 -16 -17 23 -19 -20 24 -22 -23 -24 -25 -26
leaf_value=0.0074486552411812297 -0.06644425839813288 -0.011285385804157619 -0.080003247990065918 0.0065010106099224587 -0.053098086361405943 -0.068878146541554983 0.018113849423362274 0.058564389828273944 -0.074476378424720657 -0.015171744369081613 0.019005387994992594 -0.05427074020235427 -0.010103491519851676 0.010066371215236271 -0.053746934606506869 -0.031350761343633654 0.013878602321734402 0.024156539663043951 0.037595751856265396 0.0026941383099346682 -0.070890381642721129 0.009343954884585259 -0.025152567805804146 -0.056124194992390131 0.059682828356751351
leaf_weight=6825.4243096709251 892.33776555210352 343.97064203023911 195.07650941610336 1208.3449945449829 1064.5879122763872 158.80926564335823 225.41639502346516 588.83576843142509 400.16417937725782 1041.4360411912203 14250.125219151378 719.29783411324024 1623.0002691596746 1403.7130346298218 382.32756674289703 529.94074091315269 2968.0546827912331 310.23972401022911 1336.6780223101377 560.34371231496334 290.233263656497 4855.6130949556828 390.86111817508936 92.513972014188766 175.21131902933121
leaf_count=22249 6868 1528 2427 3932 4811 841 811 1721 2580 4199 45025 2513 5302 4654 1571 2143 9928 1126 4112 1817 1255 15639 1837 360 527
internal_value=0.00508959 -0.0105337 0.00736044 0.00782251 -0.00197149 0.00907608 -0.0405383 0.00962835 0.00849398 -0.00152737 0.0113624 0.00154451 0.0160196 0.0119693 -0.00351033 0.000434946 0.00467831 -0.0179608 0.0228913 0.0353011 -0.0387999 0.00498899 -0.0502948 0.0117134 0.0164736
internal_weight=42832.6 5427.29 37405.3 37210.2 5779.88 4489.87 1290 31430.3 30105.9 6688.07 23417.8 7544.72 15873.1 4331.06 1786.04 4534.95 4005.01 944.444 2545.02 1324.39 634.204 5897.05 791.025 3060.57 735.555
internal_count=149776 23208 126568 124141 20732 15110 5622 103409 99344 24255 75089 24762 50327 14269 6225 16340 14197 3909 8044 4065 2783 19838 4417 10288 2344
is_linear=0
shrinkage=0.0735879


Tree=27
num_leaves=26
num_cat=0
split_feature=42 18 35 23 9 40 12 10 9 13 13 18 18 6 22 13 10 10 7 12 41 26 6 13 6
split_gain=242.581 557.491 252.366 126.362 113.07 109.435 230.5 179.533 224.294 163.929 157.401 96.5005 108.419 96.4976 90.0393 100.737 85.079 96.3809 68.8779 64.8188 53.6181 53.3719 50.972 46.3489 45.8904
threshold=1.0000000180025095e-35 0.011509617474462051 1.0000000180025095e-35 0.98605238366765924 0.91703400352468434 1.0000000180025095e-35 0.49064175899526891 0.99996201279840624 0.19166283726742336 0.11475132268191546 0.88875044459752106 0.98064780521262007 0.038021739130434752 19.968085106382983 1.6240080692802648 0.5467377328602967 0.63864442907533736 0.41803921718655235 3.5000000000000004 0.21066185209080207 1.0000000180025095e-35 11.01636574915374 41.615151515151517 0.96697154496690996 518.08333333333348
decision_type=2 2 2 2 2 2 2 2 2 2 2 2 2 2 2 2 2 2 2 2 2 2 2 2 2
left_child=2 21 3 4 5 7 10 8 -1 -9 -7 12 14 -5 15 -3 17 -14 -13 -19 -6 -2 -16 -18 -23
right_child=1 11 -4 13 20 6 -8 9 -10 -11 -12 18 16 -15 22 -17 23 19 -20 -21 -22 24 -24 -25 -26
leaf_value=0.0093584834581627845 -0.072626223079885699 0.013319338373053009 -0.079398307080709801 -0.081218502350508551 -0.091358686326468971 -0.0022206055459823184 -0.047629965773574312 -0.010390495467170149 -0.010278081652793642 0.019740691039856473 0.032850310389406556 -0.053374698310162165 0.031994569036972953 -0.0052514450569713959 -0.01111793243243806 -0.066238358998992164 0.015585934064993097 -0.068735173589902943 0 0.016370810891503905 0.018562164938035666 -0.057956720627882589 0.06459203494328225 -0.028059397218648266 0.031593961586145802
leaf_weight=15358.334705449641 718.31229384243488 116.73569503426552 182.56606221571565 147.7056258097291 91.379218861460686 4361.0779200494289 529.85540021955967 1071.3818544596434 3956.0742249041796 10498.39031034708 822.7493399232626 289.46837870776653 114.59815135598183 246.08555705100298 131.37091828137636 300.92631302028894 2880.1144170314074 200.22864320874214 235.38570262491703 60.467335477471352 29.754906073212624 70.989552110433578 73.963956721127033 135.71393793821335 52.754977002739906
leaf_count=50585 6163 414 2427 831 400 15621 2378 3541 13272 33852 2584 1253 366 977 683 1463 9270 1021 890 214 100 392 298 549 232
internal_value=0.00472638 -0.00986837 0.00683614 0.00726442 0.00771243 0.007951 -0.00138158 0.00968241 0.00532867 0.0169375 0.00331687 0.00030088 0.00421342 -0.0341281 -0.0239343 -0.043644 0.00942879 -0.0234665 -0.0293364 -0.0484211 -0.0631235 -0.0648608 0.0154276 0.0135721 -0.0185705
internal_weight=42676.4 5381.03 37295.4 37112.8 36719 36597.9 5713.68 30884.2 19314.4 11569.8 5183.83 4538.97 4014.12 393.791 622.997 417.662 3391.12 375.294 524.854 260.696 121.134 842.057 205.335 3015.83 123.745
internal_count=149776 23208 126568 124141 122333 121833 20583 101250 63857 37393 18205 16421 14278 1808 2858 1877 11420 1601 2143 1235 500 6787 981 9819 624
is_linear=0
shrinkage=0.0735879


Tree=28
num_leaves=26
num_cat=0
split_feature=35 42 27 14 1 31 3 14 40 40 30 14 27 1 21 13 10 39 40 10 25 10 1 13 34
split_gain=219.574 220.455 144.984 105.509 124.379 119.228 117.905 140.182 127.316 110.134 429.897 209.872 94.8372 178.833 102.823 90.2756 99.6134 86.8008 85.0245 70.0645 67.4999 65.6924 58.5731 49.448 46.7904
threshold=1.0000000180025095e-35 1.0000000180025095e-35 4.0333333333333341 0.96845043643485484 436.00000000000006 1.0880493707413026e-10 13.500000000000002 0.98791764958141692 1.0000000180025095e-35 1.0000000180025095e-35 0.055888420373661207 0.90791286119071801 1.0000000180025095e-35 1196.5000000000002 41.928215940811683 0.66575345960653309 0.86205143628124214 1.0000000180025095e-35 1.0000000180025095e-35 0.6953026132571164 1.0000000180025095e-35 0.89834127176305512 121.50000000000001 0.89658687422425898 0.12266363636363636
decision_type=2 2 2 2 2 2 2 2 2 2 2 2 2 2 2 2 2 2 2 2 2 2 2 2 2
left_child=1 3 21 4 5 9 12 8 -8 11 -11 -1 22 14 -14 16 -7 -6 -17 24 23 -3 -5 -21 -4
right_child=-2 2 19 6 17 15 7 -9 -10 10 -12 -13 13 -15 -16 18 -18 -19 -20 20 -22 -23 -24 -25 -26
leaf_value=0.0070985654821333552 -0.078835348302170122 -0.060290957917995436 0 0.035939109587808465 0.026254574126105563 0.052343959571323241 0.056718596230454207 -0.057420743496650384 -0.068885315124555396 0.0096823874976042553 -0.050135370164957359 0.022932525575564366 -0.013166127608548616 0.060915167967183513 0.011951260429506186 -0.021670594752219167 -0.00063441206857992277 0.094526791238046595 0.014816060251465908 0.0062436973540468503 -0.076382644063921076 -0.021073990896463918 -0.0615809393976849 -0.02288505345249927 -0.043684222299382056
leaf_weight=17119.677722647786 170.77988743036985 306.16307204216719 211.93575590848923 36.709857858717442 465.06156200170517 251.64947313070297 444.39893732964993 85.042647987604141 47.416695892810822 3460.8705168366432 801.01361089944839 6190.5929356515408 3447.0105967670679 221.52765997499228 1180.5331119075418 1720.1428058594465 790.65189903974533 133.14417693018913 427.82169364392757 3011.3926004618406 58.681926004588604 1051.8115231320262 238.98428028076887 351.11374949663877 335.45272410660982
leaf_count=56529 2427 2111 795 125 1552 746 1392 336 230 11671 3596 19525 12015 735 4021 6048 2568 403 1358 10586 932 5473 1291 1493 1818
internal_value=0.00438424 0.00472309 -0.00926363 0.00673729 0.00841251 0.00776026 -0.00245066 0.0290453 0.0443026 0.00932067 -0.00152528 0.0113101 -0.00602524 -0.00360482 -0.00672605 -0.0056787 0.0120135 0.0417026 -0.0143336 -0.00212111 0.00174899 -0.0300266 -0.0480513 0.00315744 -0.0265821
internal_weight=42559.6 42388.8 5326.55 37062.3 31360.6 30762.4 5701.62 576.858 491.816 27572.2 4261.88 23310.3 5124.77 4849.07 4627.54 3190.27 1042.3 598.206 2147.96 3968.58 3421.19 1357.97 275.694 3362.51 547.388
internal_count=149776 147349 23208 124141 103996 102041 20145 1958 1622 91321 15267 76054 18187 16771 16036 10720 3314 1955 7406 15624 13011 7584 1416 12079 2613
is_linear=0
shrinkage=0.0735879


Tree=29
num_leaves=26
num_cat=0
split_feature=35 42 18 23 36 18 5 6 14 26 17 22 18 23 0 18 18 0 11 22 22 7 6 26 18
split_gain=201.142 190.147 492.305 105.755 98.9299 340.672 162.647 144.498 198.255 159.817 98.839 97.5844 176.369 95.0807 85.6857 85.549 91.8646 102.291 73.4493 162.049 62.4785 60.4131 51.5157 51.2433 46.9042
threshold=1.0000000180025095e-35 1.0000000180025095e-35 0.011509617474462051 0.98605238366765924 1.0000000180025095e-35 0.010009840758633001 0.65944115549644355 5.8552083333333345 0.9809361343329569 4.0475669935661189 1.0000000180025095e-35 1.4729853954598171 0.99547445179975191 0.51504458161865585 1997.0000000000002 0.98064780521262007 0.038021739130434752 3146.5000000000005 0.033044330600273106 0.54140335890025204 1.6240080692802648 3.5000000000000004 518.08333333333348 11.01636574915374 0.73435000000000017
decision_type=2 2 2 2 2 2 2 2 2 2 2 2 2 2 2 2 2 2 2 2 2 2 2 2 2
left_child=1 3 23 4 6 10 7 8 -1 -9 22 12 -7 -12 -5 16 17 20 19 -18 -4 -17 -6 -3 -20
right_child=-2 2 15 14 5 11 -8 9 -10 -11 13 -13 -14 -15 -16 21 18 -19 24 -21 -22 -23 -24 -25 -26
leaf_value=0.055042711592796223 -0.078309765089091696 -0.070265661491652226 -0.065488181055433331 -0.086070152060447699 -0.077578966668783916 0.0027783355947317134 0.077061638446443148 0.013107654444725853 -0.0065373039890857026 0.001973952057144165 0.039522230206151969 0.016623184343675393 -0.048414364416571071 -0.0747045378030817 -0.0090710199779927767 -0.05021453179593989 0.014252378351649447 0.016595906428499917 0.021631785984124793 -0.043841466516554628 -0.00037172926157755725 0 -0.030387124157543112 -0.016616237403144416 -0.0072362042725457208
leaf_weight=784.1058267802 159.68906655907631 669.03355825319886 260.77749294042587 112.94396266341209 391.6059675142169 3478.4463405460119 186.73749212920666 12733.194418117404 436.74528141319752 15539.398601174355 116.93867878615856 2275.3565157651901 406.70075559616089 59.508525535464287 272.6526939868927 283.63053943216801 743.70980879664421 229.67830831557512 1878.5960884541273 398.521060988307 121.67888322472572 235.33091871440411 202.70026353001595 121.57694533467293 355.1242930740118
leaf_count=2485 2427 6163 1328 710 2566 11678 779 41073 1538 51597 368 7479 1514 289 1098 1253 2380 884 6057 1769 646 890 967 624 1214
internal_value=0.00406939 0.00438399 -0.00864329 0.00625344 0.00666059 -0.00123626 0.0085098 0.00807065 0.0328908 0.00699356 -0.0473758 0.00451217 -0.00254221 0.000146224 -0.0320157 0.0007194 0.00440902 -0.0217466 0.00919604 -0.00588567 -0.0451637 -0.0273451 -0.0617365 -0.0622056 0.0169752
internal_weight=42454.4 42294.7 5297.66 36997 36611.4 6931.26 29680.2 29493.4 1220.85 28272.6 770.753 6160.5 3885.15 176.447 385.597 4507.05 3988.09 612.135 3375.95 1142.23 382.456 518.961 594.306 790.611 2233.72
internal_count=149776 147349 23208 124141 122333 24861 97472 96693 4023 92670 4190 20671 13192 657 1808 16421 14278 2858 11420 4149 1974 2143 3533 6787 7271
is_linear=0
shrinkage=0.0735879


Tree=30
num_leaves=26
num_cat=0
split_feature=35 41 18 37 39 17 18 36 8 2 36 2 31 0 3 11 31 37 17 11 0 0 7 40 3
split_gain=184.401 120.796 137.769 260.742 250.452 174.079 92.4689 81.5835 80.58 151.364 105.9 102.947 94.4359 132.401 89.8598 80.0757 92.4447 77.8644 368.368 77.487 75.1124 72.8085 72.6088 66.3431 50.6795
threshold=1.0000000180025095e-35 1.0000000180025095e-35 0.070747761594574118 1.0000000180025095e-35 1.0000000180025095e-35 0.023162692296985702 0.0050002500250025004 1.0000000180025095e-35 5.2533581799829188 134.50000000000003 1.0000000180025095e-35 257.50000000000006 1.0832821406403181e-31 1362.5000000000002 8.5000000000000018 0.020146820886129853 3.0202468421613934e-23 1.0000000180025095e-35 0.013267326732673251 0.066870107478303312 3146.5000000000005 43895.000000000007 6.5000000000000009 1.0000000180025095e-35 13.500000000000002
decision_type=2 2 2 2 2 2 2 2 2 2 2 2 2 2 2 2 2 2 2 2 2 2 2 2 2
left_child=1 2 3 4 6 21 7 -1 11 17 19 12 13 -4 -14 22 -17 -10 -19 -11 -8 -5 -6 -13 -7
right_child=-2 -3 8 5 15 24 20 -9 9 10 -12 23 14 -15 -16 16 -18 18 -20 -21 -22 -23 -24 -25 -26
leaf_value=-0.017470493682434845 -0.077817400979483281 0.01227497248606114 -0.047418069335204434 -0.13008534074499101 0.059104212680655917 0.098637167127158878 -0.013955736664459959 -0.050556835832810759 0.021226931134399725 -0.011853276924618112 0.02962334589197331 0.035199782346526945 0.010080072710594599 -0.0011185497591599664 -0.04578173512494723 0.013527328135438521 -0.023952608255806564 -0.13582487242411481 0.063998677300468543 -0.068054954178022792 0.0035229734410282989 0.037981217629836361 -0.029067183242355406 -0.012822125750760749 0.040351884199585263
leaf_weight=1519.1397261582315 149.26363109052181 7900.8218137025833 346.79712324589491 35.609630271792412 302.83031596243382 193.50905719399452 4246.023147419095 563.071622826159 4159.2627955079079 403.25329437851906 207.4060346186161 812.8577591329813 6281.3410746008158 9702.4596456736326 159.013308852911 2163.1522962152958 424.39536745846272 90.606933727860451 110.36009252071381 204.6835563480854 1921.928588449955 21.101321756839752 58.242275029420853 187.54776406288147 158.72664725780487
leaf_count=8555 2427 25221 1375 139 976 526 16788 3272 13485 1468 636 2615 20256 32886 571 7002 1459 356 318 782 7171 63 198 664 567
internal_value=0.00377593 0.00406829 0.00217208 -0.00434021 -0.00645976 0.0533343 -0.0130474 -0.0264899 0.00551382 0.0135883 -0.0154121 0.00311588 0.00171555 -0.00273131 0.00867747 0.0119216 0.0073221 0.0190457 -0.0253516 -0.0310232 -0.00848512 -0.0649183 0.0444665 0.0260473 0.0728005
internal_weight=42323.4 42174.1 34273.3 11607.7 11198.8 408.947 8250.16 2082.21 22665.6 5175.57 815.343 17490 16489.6 10049.3 6440.35 2948.62 2587.55 4360.23 200.967 607.937 6167.95 56.711 361.073 1000.41 352.236
internal_count=149776 147349 122128 46716 45421 1295 35786 11827 75412 17045 2886 58367 55088 34261 20827 9635 8461 14159 674 2250 23959 202 1174 3279 1093
is_linear=0
shrinkage=0.0735879


Tree=31
num_leaves=26
num_cat=0
split_feature=35 23 9 25 17 18 37 24 6 37 0 20 6 12 23 28 11 29 23 18 39 38 20 11 19
split_gain=169.178 120.913 89.3193 84.9271 83.9405 82.1333 125.18 78.0853 82.5859 60.4434 48.3785 47.4283 33.8092 30.843 19.9389 17.2064 12.9442 16.5439 11.7124 9.71385 7.40721 13.0756 6.76388 1.65519 0.142247
threshold=1.0000000180025095e-35 0.98605238366765924 0.91703400352468434 1.0000000180025095e-35 0.98631000000000013 0.0075093984962406003 1.0000000180025095e-35 5.6438220158234316 36702.000000000007 1.0000000180025095e-35 9992.5000000000018 5.9591164162001684 502.50000000000006 0.11681091878091872 0.98979982209986572 0.96726623376623388 0.16087864888381689 0.014634247525036151 0.98901645064805599 0.010468358395989901 1.0000000180025095e-35 1.0000000180025095e-35 3.2686209711635295 0.025532713675941354 0.18251160234489497
decision_type=2 2 2 2 2 2 2 2 2 2 2 2 2 2 2 2 2 2 2 2 2 2 2 2 2
left_child=1 2 3 4 7 6 12 8 -1 -5 -9 -6 13 18 16 -15 17 23 -3 -19 21 22 24 -7 -4
right_child=-2 5 20 9 11 14 -8 10 -10 -11 -12 -13 -14 15 -16 -17 -18 19 -20 -21 -22 -23 -24 -25 -26
leaf_value=0.0044235390533638435 -0.07735449385883128 0.011923392572156567 -0.023876514801676484 -0.076810101977249287 -0.10605417472695905 0.020592966492449502 0.087039276524424156 0.063682415215776139 0.021010878125034479 0.058994282147008463 -0.025193452491186808 0.013921034507497905 0.044336260790798193 -0.0947036393631496 -0.0654766381698281 0 0.07572085163479278 -0.036305927320431301 -0.06773925059318181 0.018622627250058248 -0.10202155499220722 -0.10056842677559961 0.00094782664724399758 0.074003746875686671 -0.051931109574156011
leaf_weight=38976.338724471629 139.47306948900223 24.480956442654133 29.393359124660492 110.19843630492687 57.883652456104755 16.510683886706829 28.493143290281296 34.143661066889763 1702.2063574194908 19.873313277959824 625.26893591880798 22.800460264086723 11.056020833551882 204.03767264261842 15.296310499310492 10.030317287892101 21.053376346826553 37.354469880461693 14.795243084430693 28.971193112432957 21.916500404477119 21.611074924468994 19.02254243940115 17.082354411482811 37.676967918872833
leaf_count=133816 2427 133 136 2008 290 68 82 102 5737 57 2168 100 49 1460 75 57 78 189 91 120 100 100 84 69 180
